{"learner":{"attributes":{"scikit_learn":"{\"_estimator_type\": \"regressor\"}"},"feature_names":["open","high","low","close","avg_total_size","spread","ob_imbalance","rolling_mean","rolling_std","rolling_min","rolling_max","rolling_spread_mean","rolling_spread_std","rolling_ob_imbalance_mean","rolling_ob_imbalance_std","lag_close_1","lag_close_2","lag_close_3","ema_close_3","ema_close_5","ema_close_8","rsi","macd","macd_signal","macd_hist"],"feature_types":["float","float","float","float","float","float","float","float","float","float","float","float","float","float","float","float","float","float","float","float","float","float","float","float","float"],"gradient_booster":{"model":{"gbtree_model_param":{"num_parallel_tree":"1","num_trees":"1000"},"iteration_indptr":[0,1,2,3,4,5,6,7,8,9,10,11,12,13,14,15,16,17,18,19,20,21,22,23,24,25,26,27,28,29,30,31,32,33,34,35,36,37,38,39,40,41,42,43,44,45,46,47,48,49,50,51,52,53,54,55,56,57,58,59,60,61,62,63,64,65,66,67,68,69,70,71,72,73,74,75,76,77,78,79,80,81,82,83,84,85,86,87,88,89,90,91,92,93,94,95,96,97,98,99,100,101,102,103,104,105,106,107,108,109,110,111,112,113,114,115,116,117,118,119,120,121,122,123,124,125,126,127,128,129,130,131,132,133,134,135,136,137,138,139,140,141,142,143,144,145,146,147,148,149,150,151,152,153,154,155,156,157,158,159,160,161,162,163,164,165,166,167,168,169,170,171,172,173,174,175,176,177,178,179,180,181,182,183,184,185,186,187,188,189,190,191,192,193,194,195,196,197,198,199,200,201,202,203,204,205,206,207,208,209,210,211,212,213,214,215,216,217,218,219,220,221,222,223,224,225,226,227,228,229,230,231,232,233,234,235,236,237,238,239,240,241,242,243,244,245,246,247,248,249,250,251,252,253,254,255,256,257,258,259,260,261,262,263,264,265,266,267,268,269,270,271,272,273,274,275,276,277,278,279,280,281,282,283,284,285,286,287,288,289,290,291,292,293,294,295,296,297,298,299,300,301,302,303,304,305,306,307,308,309,310,311,312,313,314,315,316,317,318,319,320,321,322,323,324,325,326,327,328,329,330,331,332,333,334,335,336,337,338,339,340,341,342,343,344,345,346,347,348,349,350,351,352,353,354,355,356,357,358,359,360,361,362,363,364,365,366,367,368,369,370,371,372,373,374,375,376,377,378,379,380,381,382,383,384,385,386,387,388,389,390,391,392,393,394,395,396,397,398,399,400,401,402,403,404,405,406,407,408,409,410,411,412,413,414,415,416,417,418,419,420,421,422,423,424,425,426,427,428,429,430,431,432,433,434,435,436,437,438,439,440,441,442,443,444,445,446,447,448,449,450,451,452,453,454,455,456,457,458,459,460,461,462,463,464,465,466,467,468,469,470,471,472,473,474,475,476,477,478,479,480,481,482,483,484,485,486,487,488,489,490,491,492,493,494,495,496,497,498,499,500,501,502,503,504,505,506,507,508,509,510,511,512,513,514,515,516,517,518,519,520,521,522,523,524,525,526,527,528,529,530,531,532,533,534,535,536,537,538,539,540,541,542,543,544,545,546,547,548,549,550,551,552,553,554,555,556,557,558,559,560,561,562,563,564,565,566,567,568,569,570,571,572,573,574,575,576,577,578,579,580,581,582,583,584,585,586,587,588,589,590,591,592,593,594,595,596,597,598,599,600,601,602,603,604,605,606,607,608,609,610,611,612,613,614,615,616,617,618,619,620,621,622,623,624,625,626,627,628,629,630,631,632,633,634,635,636,637,638,639,640,641,642,643,644,645,646,647,648,649,650,651,652,653,654,655,656,657,658,659,660,661,662,663,664,665,666,667,668,669,670,671,672,673,674,675,676,677,678,679,680,681,682,683,684,685,686,687,688,689,690,691,692,693,694,695,696,697,698,699,700,701,702,703,704,705,706,707,708,709,710,711,712,713,714,715,716,717,718,719,720,721,722,723,724,725,726,727,728,729,730,731,732,733,734,735,736,737,738,739,740,741,742,743,744,745,746,747,748,749,750,751,752,753,754,755,756,757,758,759,760,761,762,763,764,765,766,767,768,769,770,771,772,773,774,775,776,777,778,779,780,781,782,783,784,785,786,787,788,789,790,791,792,793,794,795,796,797,798,799,800,801,802,803,804,805,806,807,808,809,810,811,812,813,814,815,816,817,818,819,820,821,822,823,824,825,826,827,828,829,830,831,832,833,834,835,836,837,838,839,840,841,842,843,844,845,846,847,848,849,850,851,852,853,854,855,856,857,858,859,860,861,862,863,864,865,866,867,868,869,870,871,872,873,874,875,876,877,878,879,880,881,882,883,884,885,886,887,888,889,890,891,892,893,894,895,896,897,898,899,900,901,902,903,904,905,906,907,908,909,910,911,912,913,914,915,916,917,918,919,920,921,922,923,924,925,926,927,928,929,930,931,932,933,934,935,936,937,938,939,940,941,942,943,944,945,946,947,948,949,950,951,952,953,954,955,956,957,958,959,960,961,962,963,964,965,966,967,968,969,970,971,972,973,974,975,976,977,978,979,980,981,982,983,984,985,986,987,988,989,990,991,992,993,994,995,996,997,998,999,1000],"tree_info":[0,0,0,0,0,0,0,0,0,0,0,0,0,0,0,0,0,0,0,0,0,0,0,0,0,0,0,0,0,0,0,0,0,0,0,0,0,0,0,0,0,0,0,0,0,0,0,0,0,0,0,0,0,0,0,0,0,0,0,0,0,0,0,0,0,0,0,0,0,0,0,0,0,0,0,0,0,0,0,0,0,0,0,0,0,0,0,0,0,0,0,0,0,0,0,0,0,0,0,0,0,0,0,0,0,0,0,0,0,0,0,0,0,0,0,0,0,0,0,0,0,0,0,0,0,0,0,0,0,0,0,0,0,0,0,0,0,0,0,0,0,0,0,0,0,0,0,0,0,0,0,0,0,0,0,0,0,0,0,0,0,0,0,0,0,0,0,0,0,0,0,0,0,0,0,0,0,0,0,0,0,0,0,0,0,0,0,0,0,0,0,0,0,0,0,0,0,0,0,0,0,0,0,0,0,0,0,0,0,0,0,0,0,0,0,0,0,0,0,0,0,0,0,0,0,0,0,0,0,0,0,0,0,0,0,0,0,0,0,0,0,0,0,0,0,0,0,0,0,0,0,0,0,0,0,0,0,0,0,0,0,0,0,0,0,0,0,0,0,0,0,0,0,0,0,0,0,0,0,0,0,0,0,0,0,0,0,0,0,0,0,0,0,0,0,0,0,0,0,0,0,0,0,0,0,0,0,0,0,0,0,0,0,0,0,0,0,0,0,0,0,0,0,0,0,0,0,0,0,0,0,0,0,0,0,0,0,0,0,0,0,0,0,0,0,0,0,0,0,0,0,0,0,0,0,0,0,0,0,0,0,0,0,0,0,0,0,0,0,0,0,0,0,0,0,0,0,0,0,0,0,0,0,0,0,0,0,0,0,0,0,0,0,0,0,0,0,0,0,0,0,0,0,0,0,0,0,0,0,0,0,0,0,0,0,0,0,0,0,0,0,0,0,0,0,0,0,0,0,0,0,0,0,0,0,0,0,0,0,0,0,0,0,0,0,0,0,0,0,0,0,0,0,0,0,0,0,0,0,0,0,0,0,0,0,0,0,0,0,0,0,0,0,0,0,0,0,0,0,0,0,0,0,0,0,0,0,0,0,0,0,0,0,0,0,0,0,0,0,0,0,0,0,0,0,0,0,0,0,0,0,0,0,0,0,0,0,0,0,0,0,0,0,0,0,0,0,0,0,0,0,0,0,0,0,0,0,0,0,0,0,0,0,0,0,0,0,0,0,0,0,0,0,0,0,0,0,0,0,0,0,0,0,0,0,0,0,0,0,0,0,0,0,0,0,0,0,0,0,0,0,0,0,0,0,0,0,0,0,0,0,0,0,0,0,0,0,0,0,0,0,0,0,0,0,0,0,0,0,0,0,0,0,0,0,0,0,0,0,0,0,0,0,0,0,0,0,0,0,0,0,0,0,0,0,0,0,0,0,0,0,0,0,0,0,0,0,0,0,0,0,0,0,0,0,0,0,0,0,0,0,0,0,0,0,0,0,0,0,0,0,0,0,0,0,0,0,0,0,0,0,0,0,0,0,0,0,0,0,0,0,0,0,0,0,0,0,0,0,0,0,0,0,0,0,0,0,0,0,0,0,0,0,0,0,0,0,0,0,0,0,0,0,0,0,0,0,0,0,0,0,0,0,0,0,0,0,0,0,0,0,0,0,0,0,0,0,0,0,0,0,0,0,0,0,0,0,0,0,0,0,0,0,0,0,0,0,0,0,0,0,0,0,0,0,0,0,0,0,0,0,0,0,0,0,0,0,0,0,0,0,0,0,0,0,0,0,0,0,0,0,0,0,0,0,0,0,0,0,0,0,0,0,0,0,0,0,0,0,0,0,0,0,0,0,0,0,0,0,0,0,0,0,0,0,0,0,0,0,0,0,0,0,0,0,0,0,0,0,0,0,0,0,0,0,0,0,0,0,0,0,0,0,0,0,0,0,0,0,0,0,0,0,0,0,0,0,0,0,0,0,0,0,0,0,0,0,0,0,0,0,0,0,0,0,0,0,0,0,0,0,0,0,0,0,0,0,0,0,0,0,0,0,0,0,0,0,0,0,0,0,0,0,0,0,0,0,0,0,0,0,0,0,0,0,0,0,0,0,0,0,0,0,0,0,0,0,0,0,0,0,0,0,0,0,0,0,0,0,0,0,0,0,0,0,0,0,0,0,0,0,0,0,0,0,0,0,0,0,0,0,0,0,0,0,0,0,0,0,0,0,0,0,0,0,0,0,0,0,0],"trees":[{"base_weights":[1.0578318E-3,-1.4017204E0,3.645364E-1,-1.6717688E0,-9.170732E-1,1.1390823E-1,1.2446035E0,-2.0503266E0,-1.5338801E0,-1.1497622E0,-6.9862163E-1,-1.0586243E-1,3.2071635E-1,1.0107137E0,1.467406E0,-4.3131102E-2,-3.811179E-2,-1.6080511E0,-1.4395201E0,-2.4214447E-2,-2.083027E-2,-8.1313944E-1,-6.2109286E-1,-2.6699963E-1,1.399722E-2,2.2487013E-1,4.1697723E-1,7.794982E-1,1.0928812E0,1.3741623E0,1.646732E0,-3.2962907E-2,-3.1303175E-2,-2.9363949E-2,-2.717535E-2,-1.6748914E-2,-1.4874847E-2,-1.3095922E-2,-1.0960591E-2,-3.6674818E-1,-2.0246522E-1,-6.218373E-2,5.0116688E-2,1.5977399E-1,2.6809165E-1,3.945393E-1,6.2454814E-1,1.4596435E-2,1.771906E-2,2.018265E-2,1.1425066E0,2.6428528E-2,2.8562116E-2,3.1484213E-2,3.4212995E-2,-4.2508763E-1,-3.2993048E-1,-2.4522913E-1,-1.5960129E-1,-9.886248E-2,-3.404407E-2,2.2901649E-2,7.890037E-2,1.3104166E-1,1.8900456E-1,2.402283E-1,2.9559618E-1,3.625343E-1,4.3480903E-1,1.0666102E-2,1.3021227E-2,2.2128208E-2,2.3636367E-2,-9.245909E-3,-7.949271E-3,-7.0966175E-3,-6.1200154E-3,-5.2845017E-3,-4.6005836E-3,-3.5904625E-3,-2.879306E-3,-2.253266E-3,-1.6524863E-3,-1.0349774E-3,-4.1878322E-4,1.48841E-4,7.417391E-4,1.2277164E-3,1.8206623E-3,2.4305838E-3,2.9227766E-3,3.4523027E-3,3.9653094E-3,4.5359298E-3,5.0709844E-3,5.624997E-3,6.1692405E-3,6.7953337E-3,7.5670714E-3,8.354603E-3,9.132794E-3],"categories":[],"categories_nodes":[],"categories_segments":[],"categories_sizes":[],"default_left":[0,0,0,0,0,0,0,0,0,0,0,0,0,0,0,0,0,0,0,0,0,0,0,0,0,0,0,0,0,0,0,0,0,0,0,0,0,0,0,0,0,0,0,0,0,0,0,0,0,0,0,0,0,0,0,0,0,0,0,0,0,0,0,0,0,0,0,0,0,0,0,0,0,0,0,0,0,0,0,0,0,0,0,0,0,0,0,0,0,0,0,0,0,0,0,0,0,0,0,0,0],"id":0,"left_children":[1,3,5,7,9,11,13,15,17,19,21,23,25,27,29,-1,-1,31,33,-1,-1,35,37,39,41,43,45,47,49,51,53,-1,-1,-1,-1,-1,-1,-1,-1,55,57,59,61,63,65,67,69,-1,-1,-1,71,-1,-1,-1,-1,73,75,77,79,81,83,85,87,89,91,93,95,97,99,-1,-1,-1,-1,-1,-1,-1,-1,-1,-1,-1,-1,-1,-1,-1,-1,-1,-1,-1,-1,-1,-1,-1,-1,-1,-1,-1,-1,-1,-1,-1,-1],"loss_changes":[1.5321891E4,8.078174E2,5.263972E3,2.0408398E2,1.11788086E2,8.443653E2,2.7418555E2,1.214209E1,1.8079102E1,5.8063965E0,9.660706E0,1.7396358E2,8.821069E1,4.823999E1,4.3000977E1,0E0,0E0,2.1191406E-1,9.970703E-1,0E0,0E0,1.513977E-1,1.3328857E0,2.4657501E1,1.4217963E1,1.3456604E1,2.1988281E1,2.9547424E0,6.760254E0,3.1965332E0,1.576416E0,0E0,0E0,0E0,0E0,0E0,0E0,0E0,0E0,3.098816E0,4.2409897E0,1.7120299E0,2.7438307E0,1.5852432E0,2.1376495E0,5.3984985E0,7.7526855E-1,0E0,0E0,0E0,3.7817383E-1,0E0,0E0,0E0,0E0,4.123993E-1,4.449768E-1,2.7617645E-1,3.3829498E-1,1.5226793E-1,2.1747899E-1,3.951205E-1,3.5629845E-1,1.21543884E-1,1.0966492E-1,1.9960022E-1,1.8013763E-1,7.38739E-1,5.1916504E-1,0E0,0E0,0E0,0E0,0E0,0E0,0E0,0E0,0E0,0E0,0E0,0E0,0E0,0E0,0E0,0E0,0E0,0E0,0E0,0E0,0E0,0E0,0E0,0E0,0E0,0E0,0E0,0E0,0E0,0E0,0E0,0E0],"parents":[2147483647,0,0,1,1,2,2,3,3,4,4,5,5,6,6,7,7,8,8,9,9,10,10,11,11,12,12,13,13,14,14,17,17,18,18,21,21,22,22,23,23,24,24,25,25,26,26,27,27,28,28,29,29,30,30,39,39,40,40,41,41,42,42,43,43,44,44,45,45,46,46,50,50,55,55,56,56,57,57,58,58,59,59,60,60,61,61,62,62,63,63,64,64,65,65,66,66,67,67,68,68],"right_children":[2,4,6,8,10,12,14,16,18,20,22,24,26,28,30,-1,-1,32,34,-1,-1,36,38,40,42,44,46,48,50,52,54,-1,-1,-1,-1,-1,-1,-1,-1,56,58,60,62,64,66,68,70,-1,-1,-1,72,-1,-1,-1,-1,74,76,78,80,82,84,86,88,90,92,94,96,98,100,-1,-1,-1,-1,-1,-1,-1,-1,-1,-1,-1,-1,-1,-1,-1,-1,-1,-1,-1,-1,-1,-1,-1,-1,-1,-1,-1,-1,-1,-1,-1,-1],"split_conditions":[6.6705E1,6.5905E1,6.7895E1,6.543E1,6.6245E1,6.7315E1,6.8475E1,6.5135E1,6.5695E1,6.608E1,6.6505E1,6.709E1,6.7535E1,6.816E1,6.874E1,-4.3131102E-2,-3.811179E-2,6.560507E1,6.58E1,-2.4214447E-2,-2.083027E-2,6.6445E1,6.661E1,6.693E1,6.7205E1,6.742335E1,6.770625E1,6.8021774E1,6.83E1,6.859E1,6.886E1,-3.2962907E-2,-3.1303175E-2,-2.9363949E-2,-2.717535E-2,-1.6748914E-2,-1.4874847E-2,-1.3095922E-2,-1.0960591E-2,6.683338E1,6.702E1,6.7145E1,6.7261086E1,6.736975E1,6.7479355E1,6.761035E1,6.7835E1,1.4596435E-2,1.771906E-2,2.018265E-2,6.835125E1,2.6428528E-2,2.8562116E-2,3.1484213E-2,3.4212995E-2,6.678E1,6.688E1,6.6961624E1,6.705E1,6.7105E1,6.717425E1,6.7233475E1,6.7295E1,6.735E1,6.739363E1,6.745086E1,6.751E1,6.756917E1,6.76475E1,1.0666102E-2,1.3021227E-2,2.2128208E-2,2.3636367E-2,-9.245909E-3,-7.949271E-3,-7.0966175E-3,-6.1200154E-3,-5.2845017E-3,-4.6005836E-3,-3.5904625E-3,-2.879306E-3,-2.253266E-3,-1.6524863E-3,-1.0349774E-3,-4.1878322E-4,1.48841E-4,7.417391E-4,1.2277164E-3,1.8206623E-3,2.4305838E-3,2.9227766E-3,3.4523027E-3,3.9653094E-3,4.5359298E-3,5.0709844E-3,5.624997E-3,6.1692405E-3,6.7953337E-3,7.5670714E-3,8.354603E-3,9.132794E-3],"split_indices":[3,2,3,2,2,2,1,9,3,9,1,3,3,1,1,0,0,18,2,0,0,1,3,3,3,18,18,19,1,3,3,0,0,0,0,0,0,0,0,18,1,3,18,18,18,18,1,0,0,0,18,0,0,0,0,3,3,18,3,2,18,18,1,3,18,18,3,18,18,0,0,0,0,0,0,0,0,0,0,0,0,0,0,0,0,0,0,0,0,0,0,0,0,0,0,0,0,0,0,0,0],"split_type":[0,0,0,0,0,0,0,0,0,0,0,0,0,0,0,0,0,0,0,0,0,0,0,0,0,0,0,0,0,0,0,0,0,0,0,0,0,0,0,0,0,0,0,0,0,0,0,0,0,0,0,0,0,0,0,0,0,0,0,0,0,0,0,0,0,0,0,0,0,0,0,0,0,0,0,0,0,0,0,0,0,0,0,0,0,0,0,0,0,0,0,0,0,0,0,0,0,0,0,0,0],"sum_hessian":[3.0048E4,6.183E3,2.3865E4,3.969E3,2.214E3,1.8576E4,5.289E3,1.056E3,2.913E3,1.07E3,1.144E3,9.006E3,9.57E3,2.583E3,2.706E3,6.01E2,4.55E2,1.622E3,1.291E3,6.78E2,3.92E2,4.58E2,6.86E2,3.841E3,5.165E3,4.797E3,4.773E3,6.8E2,1.903E3,1.786E3,9.2E2,8.19E2,8.03E2,9.4E2,3.51E2,3.31E2,1.27E2,4.64E2,2.22E2,1.507E3,2.334E3,1.661E3,3.504E3,1.916E3,2.881E3,4.31E3,4.63E2,4.69E2,2.11E2,7.16E2,1.187E3,9.16E2,8.7E2,4.43E2,4.77E2,5.79E2,9.28E2,1.166E3,1.168E3,7.2E2,9.41E2,1.802E3,1.702E3,9.69E2,9.47E2,1.436E3,1.445E3,2.407E3,1.903E3,1.09E2,3.54E2,6.34E2,5.53E2,2.4E2,3.39E2,4.48E2,4.8E2,5.11E2,6.55E2,5.09E2,6.59E2,3.86E2,3.34E2,3.99E2,5.42E2,8.63E2,9.39E2,6.99E2,1.003E3,6E2,3.69E2,3.49E2,5.98E2,7.24E2,7.12E2,6.94E2,7.51E2,9.96E2,1.411E3,1.079E3,8.24E2],"tree_param":{"num_deleted":"0","num_feature":"25","num_nodes":"101","size_leaf_vector":"1"}},{"base_weights":[1.1496617E-3,-1.3661615E0,3.565536E-1,-1.6361508E0,-8.9197415E-1,1.10643715E-1,1.2231055E0,-2.0107248E0,-1.5040288E0,-1.1244241E0,-6.847378E-1,-1.076441E-1,3.0935577E-1,9.914107E-1,1.4387398E0,-4.2293742E-2,-3.7415884E-2,-3.166492E-2,-1.4170085E0,-2.3695575E-2,-2.0361075E-2,-7.956572E-1,-6.1045814E-1,-2.647264E-1,9.427134E-3,2.0792867E-1,4.001891E-1,7.6804286E-1,1.0755569E0,1.3451477E0,1.6138806E0,-2.8919853E-2,-2.6667586E-2,-1.6408265E-2,-1.4587575E-2,-1.2865428E-2,-1.0709032E-2,-3.6425573E-1,-2.035374E-1,-6.518381E-2,4.5430027E-2,1.4451133E-1,2.5088313E-1,3.7879315E-1,6.13432E-1,1.4315794E-2,1.7522054E-2,1.9849371E-2,1.1232728E0,2.5748763E-2,2.7860241E-2,3.089084E-2,3.3546362E-2,-4.2962345E-1,-3.3526722E-1,-2.4346158E-1,-1.5804559E-1,-9.8604634E-2,-3.4938715E-2,1.8000642E-2,7.0297875E-2,1.2029623E-1,3.5047552E-3,2.2383112E-1,2.754861E-1,3.4382418E-1,4.2045763E-1,1.0424377E-2,1.27528105E-2,2.1802058E-2,2.3289654E-2,-9.384453E-3,-8.234935E-3,-7.2072223E-3,-6.2252325E-3,-5.239762E-3,-4.524564E-3,-3.5053429E-3,-2.841955E-3,-2.211988E-3,-1.5922813E-3,-1.0153007E-3,-4.3924386E-4,9.393106E-5,6.256556E-4,1.0874694E-3,1.6892534E-3,2.2091763E-3,2.6501694E-3,4.26292E-3,4.7371024E-3,5.243014E-3,5.773196E-3,6.4734714E-3,7.295984E-3,8.082293E-3,8.946393E-3],"categories":[],"categories_nodes":[],"categories_segments":[],"categories_sizes":[],"default_left":[0,0,0,0,0,0,0,0,0,0,0,0,0,0,0,0,0,0,0,0,0,0,0,0,0,0,0,0,0,0,0,0,0,0,0,0,0,0,0,0,0,0,0,0,0,0,0,0,0,0,0,0,0,0,0,0,0,0,0,0,0,0,0,0,0,0,0,0,0,0,0,0,0,0,0,0,0,0,0,0,0,0,0,0,0,0,0,0,0,0,0,0,0,0,0,0,0],"id":1,"left_children":[1,3,5,7,9,11,13,15,17,19,21,23,25,27,29,-1,-1,-1,31,-1,-1,33,35,37,39,41,43,45,47,49,51,-1,-1,-1,-1,-1,-1,53,55,57,59,61,63,65,67,-1,-1,-1,69,-1,-1,-1,-1,71,73,75,77,79,81,83,85,87,-1,89,91,93,95,-1,-1,-1,-1,-1,-1,-1,-1,-1,-1,-1,-1,-1,-1,-1,-1,-1,-1,-1,-1,-1,-1,-1,-1,-1,-1,-1,-1,-1,-1],"loss_changes":[1.4691175E4,7.9703516E2,5.113048E3,1.9359766E2,1.08339966E2,8.108254E2,2.6356934E2,1.1071289E1,1.8030273E1,5.637329E0,9.401123E0,1.6381898E2,9.006561E1,4.7290527E1,4.2824707E1,0E0,0E0,0E0,1.4919434E0,0E0,0E0,1.859436E-1,1.4349976E0,2.309262E1,1.3716063E1,1.2562515E1,2.331488E1,3.347992E0,6.2475586E0,3.1645508E0,1.5922852E0,0E0,0E0,0E0,0E0,0E0,0E0,2.5978851E0,4.244179E0,1.6765313E0,2.347921E0,1.3702812E0,1.7726135E0,6.692993E0,7.1461487E-1,0E0,0E0,0E0,3.3251953E-1,0E0,0E0,0E0,0E0,1.1898041E-1,4.9443817E-1,3.4109497E-1,2.7858162E-1,1.7091942E-1,1.7837906E-1,2.8947544E-1,4.0277958E-1,1.113863E-1,0E0,1.3293457E-1,1.7713165E-1,9.626465E-1,7.5735474E-1,0E0,0E0,0E0,0E0,0E0,0E0,0E0,0E0,0E0,0E0,0E0,0E0,0E0,0E0,0E0,0E0,0E0,0E0,0E0,0E0,0E0,0E0,0E0,0E0,0E0,0E0,0E0,0E0,0E0,0E0],"parents":[2147483647,0,0,1,1,2,2,3,3,4,4,5,5,6,6,7,7,8,8,9,9,10,10,11,11,12,12,13,13,14,14,18,18,21,21,22,22,23,23,24,24,25,25,26,26,27,27,28,28,29,29,30,30,37,37,38,38,39,39,40,40,41,41,42,42,43,43,44,44,48,48,53,53,54,54,55,55,56,56,57,57,58,58,59,59,60,60,61,61,63,63,64,64,65,65,66,66],"right_children":[2,4,6,8,10,12,14,16,18,20,22,24,26,28,30,-1,-1,-1,32,-1,-1,34,36,38,40,42,44,46,48,50,52,-1,-1,-1,-1,-1,-1,54,56,58,60,62,64,66,68,-1,-1,-1,70,-1,-1,-1,-1,72,74,76,78,80,82,84,86,88,-1,90,92,94,96,-1,-1,-1,-1,-1,-1,-1,-1,-1,-1,-1,-1,-1,-1,-1,-1,-1,-1,-1,-1,-1,-1,-1,-1,-1,-1,-1,-1,-1,-1],"split_conditions":[6.670355E1,6.590811E1,6.7891624E1,6.544E1,6.6245E1,6.7312416E1,6.8475E1,6.5135E1,6.569E1,6.608E1,6.6505E1,6.708211E1,6.751902E1,6.814818E1,6.872625E1,-4.2293742E-2,-3.7415884E-2,-3.166492E-2,6.581E1,-2.3695575E-2,-2.0361075E-2,6.6445E1,6.660913E1,6.691907E1,6.719976E1,6.741054E1,6.770625E1,6.8025E1,6.829124E1,6.859E1,6.887E1,-2.8919853E-2,-2.6667586E-2,-1.6408265E-2,-1.4587575E-2,-1.2865428E-2,-1.0709032E-2,6.683E1,6.702E1,6.7155E1,6.725469E1,6.736065E1,6.7464676E1,6.761E1,6.7835E1,1.4315794E-2,1.7522054E-2,1.9849371E-2,6.8375E1,2.5748763E-2,2.7860241E-2,3.089084E-2,3.3546362E-2,6.675342E1,6.6875E1,6.6961624E1,6.704872E1,6.71139E1,6.717425E1,6.722989E1,6.72811E1,6.733484E1,3.5047552E-3,6.744167E1,6.749156E1,6.756451E1,6.76475E1,1.0424377E-2,1.27528105E-2,2.1802058E-2,2.3289654E-2,-9.384453E-3,-8.234935E-3,-7.2072223E-3,-6.2252325E-3,-5.239762E-3,-4.524564E-3,-3.5053429E-3,-2.841955E-3,-2.211988E-3,-1.5922813E-3,-1.0153007E-3,-4.3924386E-4,9.393106E-5,6.256556E-4,1.0874694E-3,1.6892534E-3,2.2091763E-3,2.6501694E-3,4.26292E-3,4.7371024E-3,5.243014E-3,5.773196E-3,6.4734714E-3,7.295984E-3,8.082293E-3,8.946393E-3],"split_indices":[18,18,18,15,15,18,1,9,1,9,1,18,18,18,18,0,0,0,1,0,0,1,18,18,18,18,18,15,18,1,1,0,0,0,0,0,0,1,1,1,18,18,18,1,1,0,0,0,1,0,0,0,0,18,1,18,18,18,18,18,18,18,0,18,18,18,18,0,0,0,0,0,0,0,0,0,0,0,0,0,0,0,0,0,0,0,0,0,0,0,0,0,0,0,0,0,0],"split_type":[0,0,0,0,0,0,0,0,0,0,0,0,0,0,0,0,0,0,0,0,0,0,0,0,0,0,0,0,0,0,0,0,0,0,0,0,0,0,0,0,0,0,0,0,0,0,0,0,0,0,0,0,0,0,0,0,0,0,0,0,0,0,0,0,0,0,0,0,0,0,0,0,0,0,0,0,0,0,0,0,0,0,0,0,0,0,0,0,0,0,0,0,0,0,0,0,0],"sum_hessian":[3.023E4,6.236E3,2.3994E4,3.972E3,2.264E3,1.8691E4,5.303E3,1.032E3,2.94E3,1.065E3,1.199E3,8.907E3,9.784E3,2.559E3,2.744E3,5.84E2,4.48E2,1.53E3,1.41E3,6.73E2,3.92E2,4.77E2,7.22E2,3.803E3,5.104E3,4.624E3,5.16E3,7.03E2,1.856E3,1.794E3,9.5E2,1.035E3,3.75E2,3.39E2,1.38E2,4.97E2,2.25E2,1.446E3,2.357E3,1.661E3,3.443E3,1.869E3,2.755E3,4.692E3,4.68E2,4.79E2,2.24E2,6.85E2,1.171E3,8.26E2,9.68E2,4.66E2,4.84E2,4.4E2,1.006E3,1.253E3,1.104E3,7.88E2,8.73E2,1.638E3,1.805E3,1.048E3,8.21E2,1.317E3,1.438E3,2.556E3,2.136E3,1.02E2,3.66E2,6.64E2,5.07E2,1.29E2,3.11E2,4.85E2,5.21E2,5.97E2,6.56E2,5.26E2,5.78E2,4.8E2,3.08E2,3.92E2,4.81E2,8.19E2,8.19E2,8.52E2,9.53E2,5.86E2,4.62E2,7.33E2,5.84E2,7.25E2,7.13E2,1.312E3,1.244E3,1.338E3,7.98E2],"tree_param":{"num_deleted":"0","num_feature":"25","num_nodes":"97","size_leaf_vector":"1"}},{"base_weights":[-1.9084674E-4,-1.3440734E0,3.504705E-1,-1.6046305E0,-8.7799144E-1,1.1050778E-1,1.1927011E0,-1.9702196E0,-1.474953E0,-1.1050555E0,-6.683149E-1,-1.0311025E-1,3.064232E-1,9.6982944E-1,1.412112E0,-4.142395E-2,-3.6569193E-2,-3.1020872E-2,-1.3900619E0,-2.328148E-2,-1.9911166E-2,-7.7957773E-1,-5.947699E-1,-2.5724477E-1,1.2776934E-2,2.141749E-1,4.0137216E-1,7.4637055E-1,1.0506155E0,1.3190435E0,1.5824223E0,-2.8456206E-2,-2.6426155E-2,-1.6089056E-2,-1.42746875E-2,-1.2577525E-2,-1.052137E-2,-3.5179088E-1,-1.9493803E-1,-5.949042E-2,4.721329E-2,1.4777191E-1,2.5630987E-1,3.7929165E-1,5.9981024E-1,1.3987509E-2,1.7029414E-2,1.9174924E-2,1.092439E0,2.5268164E-2,2.7330654E-2,3.0299084E-2,3.2877956E-2,-4.0701225E-1,-3.1673595E-1,-2.3549236E-1,-1.5310429E-1,-9.396047E-2,-3.26574E-2,2.3890203E-2,7.658159E-2,1.2299454E-1,3.5627359E-3,2.2724372E-1,2.8224152E-1,3.4908634E-1,4.1885072E-1,1.02906795E-2,1.2498778E-2,2.111382E-2,2.2619111E-2,-8.902529E-3,-7.612539E-3,-6.814355E-3,-5.868893E-3,-5.05054E-3,-4.398517E-3,-3.4438393E-3,-2.762507E-3,-2.0713736E-3,-1.4588252E-3,-9.5163E-4,-3.577546E-4,1.9412627E-4,7.7835476E-4,1.213299E-3,1.725669E-3,2.2462662E-3,2.7230345E-3,4.27532E-3,4.7896085E-3,5.2789943E-3,5.8531994E-3,6.512233E-3,7.2592795E-3,8.079352E-3,8.8196015E-3],"categories":[],"categories_nodes":[],"categories_segments":[],"categories_sizes":[],"default_left":[0,0,0,0,0,0,0,0,0,0,0,0,0,0,0,0,0,0,0,0,0,0,0,0,0,0,0,0,0,0,0,0,0,0,0,0,0,0,0,0,0,0,0,0,0,0,0,0,0,0,0,0,0,0,0,0,0,0,0,0,0,0,0,0,0,0,0,0,0,0,0,0,0,0,0,0,0,0,0,0,0,0,0,0,0,0,0,0,0,0,0,0,0,0,0,0,0],"id":2,"left_children":[1,3,5,7,9,11,13,15,17,19,21,23,25,27,29,-1,-1,-1,31,-1,-1,33,35,37,39,41,43,45,47,49,51,-1,-1,-1,-1,-1,-1,53,55,57,59,61,63,65,67,-1,-1,-1,69,-1,-1,-1,-1,71,73,75,77,79,81,83,85,87,-1,89,91,93,95,-1,-1,-1,-1,-1,-1,-1,-1,-1,-1,-1,-1,-1,-1,-1,-1,-1,-1,-1,-1,-1,-1,-1,-1,-1,-1,-1,-1,-1,-1],"loss_changes":[1.4173716E4,7.544404E2,4.8206543E3,1.8630176E2,1.0562207E2,7.769965E2,2.5726562E2,1.1128662E1,1.6899414E1,5.762329E0,9.061157E0,1.5865547E2,8.473511E1,4.663916E1,4.012256E1,0E0,0E0,0E0,1.2810059E0,0E0,0E0,1.7926025E-1,1.3210907E0,2.238739E1,1.2622623E1,1.37109375E1,2.0677185E1,2.8668518E0,6.3566895E0,2.838623E0,1.3916016E0,0E0,0E0,0E0,0E0,0E0,0E0,2.7998962E0,3.865982E0,1.5110507E0,2.3510065E0,1.4151039E0,2.2008362E0,4.9870605E0,6.984558E-1,0E0,0E0,0E0,6.70166E-1,0E0,0E0,0E0,0E0,4.178772E-1,4.19487E-1,2.5364685E-1,3.0072784E-1,1.3704729E-1,2.0237982E-1,4.080156E-1,2.2948551E-1,1.3297272E-1,0E0,1.8333435E-1,2.24617E-1,6.7733765E-1,4.328003E-1,0E0,0E0,0E0,0E0,0E0,0E0,0E0,0E0,0E0,0E0,0E0,0E0,0E0,0E0,0E0,0E0,0E0,0E0,0E0,0E0,0E0,0E0,0E0,0E0,0E0,0E0,0E0,0E0,0E0,0E0],"parents":[2147483647,0,0,1,1,2,2,3,3,4,4,5,5,6,6,7,7,8,8,9,9,10,10,11,11,12,12,13,13,14,14,18,18,21,21,22,22,23,23,24,24,25,25,26,26,27,27,28,28,29,29,30,30,37,37,38,38,39,39,40,40,41,41,42,42,43,43,44,44,48,48,53,53,54,54,55,55,56,56,57,57,58,58,59,59,60,60,61,61,63,63,64,64,65,65,66,66],"right_children":[2,4,6,8,10,12,14,16,18,20,22,24,26,28,30,-1,-1,-1,32,-1,-1,34,36,38,40,42,44,46,48,50,52,-1,-1,-1,-1,-1,-1,54,56,58,60,62,64,66,68,-1,-1,-1,70,-1,-1,-1,-1,72,74,76,78,80,82,84,86,88,-1,90,92,94,96,-1,-1,-1,-1,-1,-1,-1,-1,-1,-1,-1,-1,-1,-1,-1,-1,-1,-1,-1,-1,-1,-1,-1,-1,-1,-1,-1,-1,-1,-1],"split_conditions":[6.6705E1,6.5915E1,6.7905E1,6.5439064E1,6.6265E1,6.732E1,6.846E1,6.5135E1,6.569E1,6.608E1,6.65E1,6.709E1,6.7535E1,6.816E1,6.873E1,-4.142395E-2,-3.6569193E-2,-3.1020872E-2,6.578E1,-2.328148E-2,-1.9911166E-2,6.6445E1,6.661E1,6.693E1,6.7205E1,6.742E1,6.770636E1,6.8025E1,6.8285E1,6.858E1,6.886E1,-2.8456206E-2,-2.6426155E-2,-1.6089056E-2,-1.42746875E-2,-1.2577525E-2,-1.052137E-2,6.6835E1,6.701E1,6.7145E1,6.7275E1,6.737E1,6.7485E1,6.7615E1,6.7835E1,1.3987509E-2,1.7029414E-2,1.9174924E-2,6.835E1,2.5268164E-2,2.7330654E-2,3.0299084E-2,3.2877956E-2,6.678E1,6.688E1,6.6965E1,6.705E1,6.7135E1,6.718E1,6.724E1,6.7295E1,6.735E1,3.5627359E-3,6.745E1,6.75E1,6.757E1,6.766E1,1.02906795E-2,1.2498778E-2,2.111382E-2,2.2619111E-2,-8.902529E-3,-7.612539E-3,-6.814355E-3,-5.868893E-3,-5.05054E-3,-4.398517E-3,-3.4438393E-3,-2.762507E-3,-2.0713736E-3,-1.4588252E-3,-9.5163E-4,-3.577546E-4,1.9412627E-4,7.7835476E-4,1.213299E-3,1.725669E-3,2.2462662E-3,2.7230345E-3,4.27532E-3,4.7896085E-3,5.2789943E-3,5.8531994E-3,6.512233E-3,7.2592795E-3,8.079352E-3,8.8196015E-3],"split_indices":[3,1,1,20,3,3,3,9,1,9,0,3,3,1,3,0,0,0,3,0,0,1,3,3,3,3,20,3,1,3,3,0,0,0,0,0,0,3,3,3,1,3,1,3,1,0,0,0,3,0,0,0,0,3,3,3,3,1,3,3,1,1,0,3,3,3,1,0,0,0,0,0,0,0,0,0,0,0,0,0,0,0,0,0,0,0,0,0,0,0,0,0,0,0,0,0,0],"split_type":[0,0,0,0,0,0,0,0,0,0,0,0,0,0,0,0,0,0,0,0,0,0,0,0,0,0,0,0,0,0,0,0,0,0,0,0,0,0,0,0,0,0,0,0,0,0,0,0,0,0,0,0,0,0,0,0,0,0,0,0,0,0,0,0,0,0,0,0,0,0,0,0,0,0,0,0,0,0,0,0,0,0,0,0,0,0,0,0,0,0,0,0,0,0,0,0,0],"sum_hessian":[3.0075E4,6.223E3,2.3852E4,3.99E3,2.233E3,1.8564E4,5.288E3,1.041E3,2.949E3,1.07E3,1.163E3,8.881E3,9.683E3,2.626E3,2.662E3,6E2,4.41E2,1.546E3,1.403E3,6.89E2,3.81E2,4.59E2,7.04E2,3.811E3,5.07E3,4.913E3,4.77E3,7E2,1.926E3,1.727E3,9.35E2,9.37E2,4.66E2,3.25E2,1.34E2,4.65E2,2.39E2,1.512E3,2.299E3,1.636E3,3.434E3,1.909E3,3.004E3,4.295E3,4.75E2,4.89E2,2.11E2,6.1E2,1.316E3,8.08E2,9.19E2,4.58E2,4.77E2,5.83E2,9.29E2,1.165E3,1.134E3,7.15E2,9.21E2,1.915E3,1.519E3,1.054E3,8.55E2,1.421E3,1.583E3,2.441E3,1.854E3,1.13E2,3.62E2,6.88E2,6.28E2,2.32E2,3.51E2,4.51E2,4.78E2,5.49E2,6.16E2,4.94E2,6.4E2,4.88E2,2.27E2,4.57E2,4.64E2,9.86E2,9.29E2,5.78E2,9.41E2,5.87E2,4.67E2,6.85E2,7.36E2,5.84E2,9.99E2,9.16E2,1.525E3,1.12E3,7.34E2],"tree_param":{"num_deleted":"0","num_feature":"25","num_nodes":"97","size_leaf_vector":"1"}},{"base_weights":[-1.9295841E-3,-1.3203505E0,3.4236693E-1,-1.5737077E0,-8.5901004E-1,1.07229725E-1,1.1737342E0,-1.9323882E0,-1.4427446E0,-1.0833471E0,-6.542726E-1,-9.864726E-2,3.0195594E-1,9.5058185E-1,1.3822403E0,-4.0641587E-2,-3.5875678E-2,-3.0387292E-2,-1.3607906E0,-2.3007682E-2,-1.9935291E-2,-7.649282E-1,-5.810422E-1,-2.5349444E-1,1.1963996E-2,2.1132818E-1,3.9366534E-1,7.5800693E-1,1.0409698E0,1.2935174E0,1.5493101E0,-2.7782723E-2,-2.5621459E-2,-1.6046098E-2,-1.4416933E-2,-1.2292936E-2,-1.0261714E-2,-3.5199702E-1,-1.9506013E-1,-6.2849835E-2,4.6173703E-2,1.4993997E-1,2.528007E-1,3.7124854E-1,5.8814794E-1,1.3720394E-2,1.7095717E-2,1.963909E-2,2.1811059E-2,2.4740469E-2,2.679046E-2,2.9716313E-2,3.225498E-2,-4.1307926E-1,-3.2322627E-1,-2.3371072E-1,-1.5133786E-1,-9.391767E-2,-3.367068E-2,2.02638E-2,7.4515924E-2,1.2480617E-1,3.613457E-3,2.263456E-1,2.7830088E-1,3.4137452E-1,4.094657E-1,1.0065927E-2,1.22346645E-2,-8.707576E-3,-7.6870173E-3,-6.9202785E-3,-5.963311E-3,-5.0737816E-3,-4.365906E-3,-3.3640063E-3,-2.722104E-3,-2.1277687E-3,-1.5304033E-3,-9.964824E-4,-4.539767E-4,8.392116E-5,6.6069484E-4,1.1503438E-3,1.7234874E-3,2.2968194E-3,2.789029E-3,4.278095E-3,4.772121E-3,5.2982937E-3,5.8082514E-3,6.397765E-3,7.1171275E-3,7.863968E-3,8.5930545E-3],"categories":[],"categories_nodes":[],"categories_segments":[],"categories_sizes":[],"default_left":[0,0,0,0,0,0,0,0,0,0,0,0,0,0,0,0,0,0,0,0,0,0,0,0,0,0,0,0,0,0,0,0,0,0,0,0,0,0,0,0,0,0,0,0,0,0,0,0,0,0,0,0,0,0,0,0,0,0,0,0,0,0,0,0,0,0,0,0,0,0,0,0,0,0,0,0,0,0,0,0,0,0,0,0,0,0,0,0,0,0,0,0,0,0,0],"id":3,"left_children":[1,3,5,7,9,11,13,15,17,19,21,23,25,27,29,-1,-1,-1,31,-1,-1,33,35,37,39,41,43,45,47,49,51,-1,-1,-1,-1,-1,-1,53,55,57,59,61,63,65,67,-1,-1,-1,-1,-1,-1,-1,-1,69,71,73,75,77,79,81,83,85,-1,87,89,91,93,-1,-1,-1,-1,-1,-1,-1,-1,-1,-1,-1,-1,-1,-1,-1,-1,-1,-1,-1,-1,-1,-1,-1,-1,-1,-1,-1,-1],"loss_changes":[1.3652784E4,7.266006E2,4.662005E3,1.86E2,1.00796875E2,7.453765E2,2.433335E2,1.116748E1,1.6443848E1,4.96521E0,8.939209E0,1.5480447E2,7.93324E1,4.3475586E1,3.8254883E1,0E0,0E0,0E0,1.4604492E0,0E0,0E0,1.7626953E-1,1.285492E0,2.1608139E1,1.3498404E1,1.2202881E1,2.0481384E1,5.098572E0,3.9854736E0,2.9692383E0,1.3781738E0,0E0,0E0,0E0,0E0,0E0,0E0,2.3285675E0,3.9629135E0,1.4971504E0,2.6560817E0,1.4767456E0,1.8717957E0,4.723938E0,6.7071533E-1,0E0,0E0,0E0,0E0,0E0,0E0,0E0,0E0,1.1773682E-1,4.4335175E-1,3.308258E-1,2.6298904E-1,1.6564417E-1,1.5040332E-1,3.8810015E-1,3.3749676E-1,1.402893E-1,0E0,1.6448975E-1,1.5912628E-1,6.3201904E-1,4.4317627E-1,0E0,0E0,0E0,0E0,0E0,0E0,0E0,0E0,0E0,0E0,0E0,0E0,0E0,0E0,0E0,0E0,0E0,0E0,0E0,0E0,0E0,0E0,0E0,0E0,0E0,0E0,0E0,0E0],"parents":[2147483647,0,0,1,1,2,2,3,3,4,4,5,5,6,6,7,7,8,8,9,9,10,10,11,11,12,12,13,13,14,14,18,18,21,21,22,22,23,23,24,24,25,25,26,26,27,27,28,28,29,29,30,30,37,37,38,38,39,39,40,40,41,41,42,42,43,43,44,44,53,53,54,54,55,55,56,56,57,57,58,58,59,59,60,60,61,61,63,63,64,64,65,65,66,66],"right_children":[2,4,6,8,10,12,14,16,18,20,22,24,26,28,30,-1,-1,-1,32,-1,-1,34,36,38,40,42,44,46,48,50,52,-1,-1,-1,-1,-1,-1,54,56,58,60,62,64,66,68,-1,-1,-1,-1,-1,-1,-1,-1,70,72,74,76,78,80,82,84,86,-1,88,90,92,94,-1,-1,-1,-1,-1,-1,-1,-1,-1,-1,-1,-1,-1,-1,-1,-1,-1,-1,-1,-1,-1,-1,-1,-1,-1,-1,-1,-1],"split_conditions":[6.6705E1,6.5905E1,6.788E1,6.543E1,6.6245E1,6.7315E1,6.846E1,6.5135E1,6.567E1,6.606248E1,6.649888E1,6.708211E1,6.7535E1,6.8165E1,6.874E1,-4.0641587E-2,-3.5875678E-2,-3.0387292E-2,6.581E1,-2.3007682E-2,-1.9935291E-2,6.638735E1,6.6606125E1,6.692E1,6.719976E1,6.742335E1,6.771E1,6.8025E1,6.8315E1,6.858E1,6.886121E1,-2.7782723E-2,-2.5621459E-2,-1.6046098E-2,-1.4416933E-2,-1.2292936E-2,-1.0261714E-2,6.682E1,6.701E1,6.7155E1,6.7261086E1,6.7385E1,6.7479355E1,6.761035E1,6.7835E1,1.3720394E-2,1.7095717E-2,1.963909E-2,2.1811059E-2,2.4740469E-2,2.679046E-2,2.9716313E-2,3.225498E-2,6.678E1,6.687E1,6.695E1,6.704872E1,6.7115E1,6.7165E1,6.722989E1,6.7295E1,6.735E1,3.613457E-3,6.745086E1,6.751E1,6.756917E1,6.76475E1,1.0065927E-2,1.22346645E-2,-8.707576E-3,-7.6870173E-3,-6.9202785E-3,-5.963311E-3,-5.0737816E-3,-4.365906E-3,-3.3640063E-3,-2.722104E-3,-2.1277687E-3,-1.5304033E-3,-9.964824E-4,-4.539767E-4,8.392116E-5,6.6069484E-4,1.1503438E-3,1.7234874E-3,2.2968194E-3,2.789029E-3,4.278095E-3,4.772121E-3,5.2982937E-3,5.8082514E-3,6.397765E-3,7.1171275E-3,7.863968E-3,8.5930545E-3],"split_indices":[3,2,2,2,2,2,3,9,2,18,18,18,3,2,1,0,0,0,1,0,0,18,20,3,18,18,3,3,3,3,18,0,0,0,0,0,0,3,3,1,18,1,18,18,1,0,0,0,0,0,0,0,0,3,3,2,18,3,2,18,1,3,0,18,3,18,18,0,0,0,0,0,0,0,0,0,0,0,0,0,0,0,0,0,0,0,0,0,0,0,0,0,0,0,0],"split_type":[0,0,0,0,0,0,0,0,0,0,0,0,0,0,0,0,0,0,0,0,0,0,0,0,0,0,0,0,0,0,0,0,0,0,0,0,0,0,0,0,0,0,0,0,0,0,0,0,0,0,0,0,0,0,0,0,0,0,0,0,0,0,0,0,0,0,0,0,0,0,0,0,0,0,0,0,0,0,0,0,0,0,0,0,0,0,0,0,0,0,0,0,0,0,0],"sum_hessian":[3.0075E4,6.227E3,2.3848E4,4.018E3,2.209E3,1.8591E4,5.257E3,1.071E3,2.947E3,1.052E3,1.157E3,9.037E3,9.554E3,2.542E3,2.715E3,6.15E2,4.56E2,1.514E3,1.433E3,5.86E2,4.66E2,4.57E2,7E2,3.765E3,5.272E3,4.807E3,4.747E3,8.15E2,1.727E3,1.779E3,9.36E2,1.045E3,3.88E2,2.38E2,2.19E2,4.63E2,2.37E2,1.4E3,2.365E3,1.654E3,3.618E3,1.94E3,2.867E3,4.259E3,4.88E2,4.72E2,3.43E2,7.98E2,9.29E2,8.11E2,9.68E2,4.8E2,4.56E2,4.44E2,9.56E2,1.253E3,1.112E3,8E2,8.54E2,1.891E3,1.727E3,1.07E3,8.7E2,1.412E3,1.455E3,2.396E3,1.863E3,1.11E2,3.77E2,2.42E2,2.02E2,4.94E2,4.62E2,5.39E2,7.14E2,5.23E2,5.89E2,4.63E2,3.37E2,3.44E2,5.1E2,8.38E2,1.053E3,7.05E2,1.022E3,6.42E2,4.28E2,7.1E2,7.02E2,7.02E2,7.53E2,9.74E2,1.422E3,1.043E3,8.2E2],"tree_param":{"num_deleted":"0","num_feature":"25","num_nodes":"95","size_leaf_vector":"1"}},{"base_weights":[-1.82819E-4,-1.2909458E0,3.3707234E-1,-1.5417798E0,-8.435716E-1,1.0528874E-1,1.1508168E0,-1.8920474E0,-1.4160405E0,-1.0616924E0,-6.3994193E-1,-9.698181E-2,2.9658318E-1,9.317598E-1,1.3564237E0,-3.9818406E-2,-3.5121895E-2,-1.4832261E0,-1.3290753E0,-2.2545168E-2,-1.9490454E-2,-1.5023106E-2,-5.7276255E-1,-2.4558322E-1,1.2577827E-2,2.087136E-1,3.8655344E-1,7.2345364E-1,1.0116942E0,1.266878E0,1.5201719E0,-3.0408975E-2,-2.8872026E-2,-2.7103802E-2,-2.512248E-2,-1.2120289E-2,-1.0094704E-2,-3.3992276E-1,-1.8623583E-1,-5.3277507E-2,4.8157852E-2,1.5051463E-1,2.5107905E-1,3.6465937E-1,5.7833546E-1,1.3456264E-2,1.643815E-2,1.8662218E-2,1.0550429E0,2.4405042E-2,2.6387159E-2,2.9061025E-2,3.1569947E-2,-3.908273E-1,-3.0484685E-1,-2.2652486E-1,-1.4677143E-1,-8.630054E-2,-2.4501296E-2,2.6398787E-2,7.684251E-2,1.2275058E-1,1.7972519E-1,2.2367996E-1,2.7353266E-1,3.337896E-1,3.9971888E-1,9.897454E-3,1.2029213E-2,2.0543868E-2,2.1948112E-2,-8.547651E-3,-7.337679E-3,-6.546379E-3,-5.6438926E-3,-4.813283E-3,-4.191248E-3,-3.291848E-3,-2.6485585E-3,-1.9962825E-3,-1.3357487E-3,-8.382266E-4,-2.8930098E-4,2.1948823E-4,7.7566114E-4,1.2599353E-3,1.7288304E-3,2.240758E-3,2.7398204E-3,3.3259075E-3,3.806831E-3,4.265178E-3,4.717134E-3,5.1930463E-3,5.7103643E-3,6.2926924E-3,6.945148E-3,7.682346E-3,8.42309E-3],"categories":[],"categories_nodes":[],"categories_segments":[],"categories_sizes":[],"default_left":[0,0,0,0,0,0,0,0,0,0,0,0,0,0,0,0,0,0,0,0,0,0,0,0,0,0,0,0,0,0,0,0,0,0,0,0,0,0,0,0,0,0,0,0,0,0,0,0,0,0,0,0,0,0,0,0,0,0,0,0,0,0,0,0,0,0,0,0,0,0,0,0,0,0,0,0,0,0,0,0,0,0,0,0,0,0,0,0,0,0,0,0,0,0,0,0,0,0,0],"id":4,"left_children":[1,3,5,7,9,11,13,15,17,19,21,23,25,27,29,-1,-1,31,33,-1,-1,-1,35,37,39,41,43,45,47,49,51,-1,-1,-1,-1,-1,-1,53,55,57,59,61,63,65,67,-1,-1,-1,69,-1,-1,-1,-1,71,73,75,77,79,81,83,85,87,89,91,93,95,97,-1,-1,-1,-1,-1,-1,-1,-1,-1,-1,-1,-1,-1,-1,-1,-1,-1,-1,-1,-1,-1,-1,-1,-1,-1,-1,-1,-1,-1,-1,-1,-1],"loss_changes":[1.308953E4,6.9769824E2,4.4964043E3,1.7304883E2,9.881213E1,7.180204E2,2.3677051E2,1.0631348E1,1.5206543E1,5.0739746E0,8.243866E0,1.4685516E2,7.531549E1,4.192749E1,3.8015625E1,0E0,0E0,2.3876953E-1,7.573242E-1,0E0,0E0,0E0,1.3409119E0,2.1368927E1,1.2170462E1,1.1863785E1,1.9570007E1,3.006836E0,5.314087E0,2.713623E0,1.4567871E0,0E0,0E0,0E0,0E0,0E0,0E0,2.5180664E0,3.7063904E0,1.7292914E0,2.10261E0,1.629139E0,1.6564636E0,4.4457397E0,6.3072205E-1,0E0,0E0,0E0,2.6953125E-1,0E0,0E0,0E0,0E0,3.6747742E-1,3.550949E-1,2.2825623E-1,2.8263855E-1,2.1694517E-1,1.6975677E-1,3.6614108E-1,1.8779945E-1,1.4437675E-1,1.0949707E-1,1.0997009E-1,1.8040466E-1,4.727478E-1,4.9905396E-1,0E0,0E0,0E0,0E0,0E0,0E0,0E0,0E0,0E0,0E0,0E0,0E0,0E0,0E0,0E0,0E0,0E0,0E0,0E0,0E0,0E0,0E0,0E0,0E0,0E0,0E0,0E0,0E0,0E0,0E0,0E0,0E0],"parents":[2147483647,0,0,1,1,2,2,3,3,4,4,5,5,6,6,7,7,8,8,9,9,10,10,11,11,12,12,13,13,14,14,17,17,18,18,22,22,23,23,24,24,25,25,26,26,27,27,28,28,29,29,30,30,37,37,38,38,39,39,40,40,41,41,42,42,43,43,44,44,48,48,53,53,54,54,55,55,56,56,57,57,58,58,59,59,60,60,61,61,62,62,63,63,64,64,65,65,66,66],"right_children":[2,4,6,8,10,12,14,16,18,20,22,24,26,28,30,-1,-1,32,34,-1,-1,-1,36,38,40,42,44,46,48,50,52,-1,-1,-1,-1,-1,-1,54,56,58,60,62,64,66,68,-1,-1,-1,70,-1,-1,-1,-1,72,74,76,78,80,82,84,86,88,90,92,94,96,98,-1,-1,-1,-1,-1,-1,-1,-1,-1,-1,-1,-1,-1,-1,-1,-1,-1,-1,-1,-1,-1,-1,-1,-1,-1,-1,-1,-1,-1,-1,-1,-1],"split_conditions":[6.6705E1,6.591E1,6.788E1,6.5444374E1,6.629044E1,6.7315E1,6.8475E1,6.5135E1,6.5695E1,6.606248E1,6.648E1,6.709E1,6.7535E1,6.814818E1,6.872625E1,-3.9818406E-2,-3.5121895E-2,6.560507E1,6.581E1,-2.2545168E-2,-1.9490454E-2,-1.5023106E-2,6.66E1,6.693E1,6.721E1,6.7429214E1,6.770625E1,6.802283E1,6.829E1,6.8590546E1,6.8845E1,-3.0408975E-2,-2.8872026E-2,-2.7103802E-2,-2.512248E-2,-1.2120289E-2,-1.0094704E-2,6.6835E1,6.701E1,6.7155E1,6.726807E1,6.7385E1,6.7479355E1,6.761E1,6.7835E1,1.3456264E-2,1.643815E-2,1.8662218E-2,6.8355E1,2.4405042E-2,2.6387159E-2,2.9061025E-2,3.1569947E-2,6.678E1,6.688E1,6.696761E1,6.704872E1,6.7115E1,6.718E1,6.724E1,6.7285E1,6.735E1,6.7405E1,6.745521E1,6.751E1,6.756917E1,6.76475E1,9.897454E-3,1.2029213E-2,2.0543868E-2,2.1948112E-2,-8.547651E-3,-7.337679E-3,-6.546379E-3,-5.6438926E-3,-4.813283E-3,-4.191248E-3,-3.291848E-3,-2.6485585E-3,-1.9962825E-3,-1.3357487E-3,-8.382266E-4,-2.8930098E-4,2.1948823E-4,7.7566114E-4,1.2599353E-3,1.7288304E-3,2.240758E-3,2.7398204E-3,3.3259075E-3,3.806831E-3,4.265178E-3,4.717134E-3,5.1930463E-3,5.7103643E-3,6.2926924E-3,6.945148E-3,7.682346E-3,8.42309E-3],"split_indices":[3,3,2,18,18,2,1,9,3,18,2,3,18,18,18,0,0,18,1,0,0,0,2,3,3,18,18,18,3,18,2,0,0,0,0,0,0,3,3,3,18,1,18,3,1,0,0,0,2,0,0,0,0,3,3,18,18,2,3,3,2,3,3,18,3,18,18,0,0,0,0,0,0,0,0,0,0,0,0,0,0,0,0,0,0,0,0,0,0,0,0,0,0,0,0,0,0,0,0],"split_type":[0,0,0,0,0,0,0,0,0,0,0,0,0,0,0,0,0,0,0,0,0,0,0,0,0,0,0,0,0,0,0,0,0,0,0,0,0,0,0,0,0,0,0,0,0,0,0,0,0,0,0,0,0,0,0,0,0,0,0,0,0,0,0,0,0,0,0,0,0,0,0,0,0,0,0,0,0,0,0,0,0,0,0,0,0,0,0,0,0,0,0,0,0,0,0,0,0,0,0],"sum_hessian":[3.0067E4,6.228E3,2.3839E4,3.989E3,2.239E3,1.8555E4,5.284E3,1.05E3,2.939E3,1.079E3,1.16E3,9.019E3,9.536E3,2.561E3,2.723E3,6E2,4.5E2,1.649E3,1.29E3,6.09E2,4.7E2,4.33E2,7.27E2,3.827E3,5.192E3,4.826E3,4.71E3,7.13E2,1.848E3,1.766E3,9.57E2,8.31E2,8.18E2,9.37E2,3.53E2,4.83E2,2.44E2,1.476E3,2.351E3,1.821E3,3.371E3,2.035E3,2.791E3,4.23E3,4.8E2,4.76E2,2.37E2,6.65E2,1.183E3,9.48E2,8.18E2,4.57E2,5E2,5.98E2,8.78E2,1.161E3,1.19E3,8.47E2,9.74E2,1.918E3,1.453E3,1.046E3,9.89E2,1.262E3,1.529E3,2.255E3,1.975E3,1.09E2,3.71E2,7.29E2,4.54E2,2.3E2,3.68E2,4.34E2,4.44E2,6.26E2,5.35E2,5.26E2,6.64E2,4.98E2,3.49E2,3.55E2,6.19E2,8.55E2,1.063E3,5.98E2,8.55E2,6.02E2,4.44E2,4.44E2,5.45E2,6.9E2,5.72E2,7.19E2,8.1E2,9.41E2,1.314E3,1.154E3,8.21E2],"tree_param":{"num_deleted":"0","num_feature":"25","num_nodes":"99","size_leaf_vector":"1"}},{"base_weights":[-3.0300065E-3,-1.2663792E0,3.267692E-1,-1.505029E0,-8.098511E-1,1.0266854E-1,1.1272132E0,-1.8551577E0,-1.379907E0,-1.0264009E0,-6.325551E-1,-9.546091E-2,2.899566E-1,9.152842E-1,1.3289835E0,-3.903099E-2,-3.4466445E-2,-1.452863E0,-1.2916439E0,-2.1588733E-2,-1.8664032E-2,-7.3635185E-1,-5.6227E-1,-2.4807087E-1,8.89073E-3,2.0237017E-1,3.7634155E-1,7.290864E-1,9.996392E-1,1.2335802E0,1.4751784E0,-2.9849907E-2,-2.8311495E-2,-2.655366E-2,-2.4289055E-2,-1.5414146E-2,-1.3911487E-2,-1.1868445E-2,-9.896236E-3,-3.3755657E-1,-1.9122455E-1,-6.3548565E-2,4.4477057E-2,1.4365216E-1,2.4179445E-1,3.5575643E-1,5.6762135E-1,1.3223768E-2,1.6436774E-2,1.8840453E-2,2.0923091E-2,2.364938E-2,2.5413089E-2,2.796124E-2,3.0710494E-2,-7.9407E-3,-3.0986816E-1,-2.2634906E-1,-1.5120505E-1,-9.693139E-2,-3.5421856E-2,1.9596312E-2,7.1514405E-2,2.3620308E-3,3.4162018E-3,2.1725804E-1,2.664371E-1,3.2508266E-1,3.9133313E-1,9.749976E-3,1.1766861E-2,-6.533193E-3,-5.573244E-3,-4.8638624E-3,-4.2392495E-3,-3.366886E-3,-2.7443802E-3,-2.1196238E-3,-1.5633239E-3,-1.0153049E-3,-4.377329E-4,1.2136011E-4,6.655392E-4,1.1019734E-3,1.6469517E-3,4.1013267E-3,4.583615E-3,5.068924E-3,5.5417633E-3,6.1222124E-3,6.80899E-3,7.5179297E-3,8.251179E-3],"categories":[],"categories_nodes":[],"categories_segments":[],"categories_sizes":[],"default_left":[0,0,0,0,0,0,0,0,0,0,0,0,0,0,0,0,0,0,0,0,0,0,0,0,0,0,0,0,0,0,0,0,0,0,0,0,0,0,0,0,0,0,0,0,0,0,0,0,0,0,0,0,0,0,0,0,0,0,0,0,0,0,0,0,0,0,0,0,0,0,0,0,0,0,0,0,0,0,0,0,0,0,0,0,0,0,0,0,0,0,0,0,0],"id":5,"left_children":[1,3,5,7,9,11,13,15,17,19,21,23,25,27,29,-1,-1,31,33,-1,-1,35,37,39,41,43,45,47,49,51,53,-1,-1,-1,-1,-1,-1,-1,-1,55,57,59,61,63,65,67,69,-1,-1,-1,-1,-1,-1,-1,-1,-1,71,73,75,77,79,81,83,-1,-1,85,87,89,91,-1,-1,-1,-1,-1,-1,-1,-1,-1,-1,-1,-1,-1,-1,-1,-1,-1,-1,-1,-1,-1,-1,-1,-1],"loss_changes":[1.2563294E4,6.7884863E2,4.28904E3,1.7696875E2,8.170459E1,6.9326587E2,2.2242383E2,1.0310547E1,1.7589355E1,3.7575684E0,8.209045E0,1.4458617E2,7.258911E1,3.9385986E1,3.551758E1,0E0,0E0,3.2128906E-1,2.2182617E0,0E0,0E0,1.279602E-1,1.1963348E0,1.8690964E1,1.3905163E1,1.100972E1,1.8832031E1,4.494751E0,3.7181396E0,1.5786133E0,2.7490234E0,0E0,0E0,0E0,0E0,0E0,0E0,0E0,0E0,2.2336273E0,3.138359E0,1.6650796E0,2.431788E0,1.3114281E0,1.6671448E0,4.6384277E0,4.9020386E-1,0E0,0E0,0E0,0E0,0E0,0E0,0E0,0E0,0E0,4.2301178E-1,2.3924637E-1,2.3051262E-1,1.2961054E-1,1.9950402E-1,3.4866637E-1,3.036499E-1,0E0,0E0,1.6159058E-1,1.2612915E-1,5.8117676E-1,5.0579834E-1,0E0,0E0,0E0,0E0,0E0,0E0,0E0,0E0,0E0,0E0,0E0,0E0,0E0,0E0,0E0,0E0,0E0,0E0,0E0,0E0,0E0,0E0,0E0,0E0],"parents":[2147483647,0,0,1,1,2,2,3,3,4,4,5,5,6,6,7,7,8,8,9,9,10,10,11,11,12,12,13,13,14,14,17,17,18,18,21,21,22,22,23,23,24,24,25,25,26,26,27,27,28,28,29,29,30,30,39,39,40,40,41,41,42,42,43,43,44,44,45,45,46,46,56,56,57,57,58,58,59,59,60,60,61,61,62,62,65,65,66,66,67,67,68,68],"right_children":[2,4,6,8,10,12,14,16,18,20,22,24,26,28,30,-1,-1,32,34,-1,-1,36,38,40,42,44,46,48,50,52,54,-1,-1,-1,-1,-1,-1,-1,-1,56,58,60,62,64,66,68,70,-1,-1,-1,-1,-1,-1,-1,-1,-1,72,74,76,78,80,82,84,-1,-1,86,88,90,92,-1,-1,-1,-1,-1,-1,-1,-1,-1,-1,-1,-1,-1,-1,-1,-1,-1,-1,-1,-1,-1,-1,-1,-1],"split_conditions":[6.6715E1,6.5935E1,6.789152E1,6.5444374E1,6.629044E1,6.7315E1,6.8475E1,6.5135E1,6.5685E1,6.6095E1,6.648E1,6.70748E1,6.753014E1,6.8165E1,6.869005E1,-3.903099E-2,-3.4466445E-2,6.559E1,6.58E1,-2.1588733E-2,-1.8664032E-2,6.638735E1,6.66E1,6.691907E1,6.719976E1,6.742335E1,6.771E1,6.8025E1,6.8325E1,6.856553E1,6.882244E1,-2.9849907E-2,-2.8311495E-2,-2.655366E-2,-2.4289055E-2,-1.5414146E-2,-1.3911487E-2,-1.1868445E-2,-9.896236E-3,6.683E1,6.6998405E1,6.713E1,6.7261086E1,6.736975E1,6.7479355E1,6.760539E1,6.7835E1,1.3223768E-2,1.6436774E-2,1.8840453E-2,2.0923091E-2,2.364938E-2,2.5413089E-2,2.796124E-2,3.0710494E-2,-7.9407E-3,6.688087E1,6.695E1,6.704097E1,6.7105E1,6.7165E1,6.7233475E1,6.728562E1,2.3620308E-3,3.4162018E-3,6.745086E1,6.75E1,6.756917E1,6.76475E1,9.749976E-3,1.1766861E-2,-6.533193E-3,-5.573244E-3,-4.8638624E-3,-4.2392495E-3,-3.366886E-3,-2.7443802E-3,-2.1196238E-3,-1.5633239E-3,-1.0153049E-3,-4.377329E-4,1.2136011E-4,6.655392E-4,1.1019734E-3,1.6469517E-3,4.1013267E-3,4.583615E-3,5.068924E-3,5.5417633E-3,6.1222124E-3,6.80899E-3,7.5179297E-3,8.251179E-3],"split_indices":[1,2,19,18,18,2,1,9,2,2,2,18,18,2,18,0,0,2,2,0,0,18,2,18,18,18,0,15,1,18,18,0,0,0,0,0,0,0,0,1,18,2,18,18,18,18,1,0,0,0,0,0,0,0,0,0,18,2,18,2,2,18,18,0,0,18,2,18,18,0,0,0,0,0,0,0,0,0,0,0,0,0,0,0,0,0,0,0,0,0,0,0,0],"split_type":[0,0,0,0,0,0,0,0,0,0,0,0,0,0,0,0,0,0,0,0,0,0,0,0,0,0,0,0,0,0,0,0,0,0,0,0,0,0,0,0,0,0,0,0,0,0,0,0,0,0,0,0,0,0,0,0,0,0,0,0,0,0,0,0,0,0,0,0,0,0,0,0,0,0,0,0,0,0,0,0,0,0,0,0,0,0,0,0,0,0,0,0,0],"sum_hessian":[3.0151E4,6.241E3,2.391E4,4.097E3,2.144E3,1.8681E4,5.229E3,1.075E3,3.022E3,9.63E2,1.181E3,9.078E3,9.603E3,2.553E3,2.676E3,6.13E2,4.62E2,1.646E3,1.376E3,6.07E2,3.56E2,4.73E2,7.08E2,3.686E3,5.392E3,4.77E3,4.833E3,7.99E2,1.754E3,1.625E3,1.051E3,7.79E2,8.67E2,9.27E2,4.49E2,2.47E2,2.26E2,4.79E2,2.29E2,1.43E3,2.256E3,1.776E3,3.616E3,1.918E3,2.852E3,4.366E3,4.67E2,4.66E2,3.33E2,7.93E2,9.61E2,6.97E2,9.28E2,4.72E2,5.79E2,4.5E2,9.8E2,1.199E3,1.057E3,8.11E2,9.65E2,1.884E3,1.732E3,9.91E2,9.27E2,1.434E3,1.418E3,2.35E3,2.016E3,1.01E2,3.66E2,6.31E2,3.49E2,5.45E2,6.54E2,4.7E2,5.87E2,5.44E2,2.67E2,4.51E2,5.14E2,9.48E2,9.36E2,6.91E2,1.041E3,7.18E2,7.16E2,6.5E2,7.68E2,1.061E3,1.289E3,1.178E3,8.38E2],"tree_param":{"num_deleted":"0","num_feature":"25","num_nodes":"93","size_leaf_vector":"1"}},{"base_weights":[1.1311018E-4,-1.241496E0,3.2341835E-1,-1.4734403E0,-7.9626006E-1,9.9764235E-2,1.1057656E0,-1.8170278E0,-1.3532997E0,-1.0037442E0,-6.180054E-1,-9.3519874E-2,2.840108E-1,8.8629717E-1,1.2928883E0,-3.820534E-2,-3.374531E-2,-1.4256431E0,-1.2668586E0,-2.117353E-2,-1.8256653E-2,-7.1825707E-1,-5.5051553E-1,-2.3605448E-1,1.2004004E-2,1.9977549E-1,3.7062293E-1,6.911446E-1,9.616721E-1,1.2011837E0,1.4459221E0,-2.92328E-2,-2.7719209E-2,-2.6004978E-2,-2.380533E-2,-1.4773796E-2,-1.3065921E-2,-1.1619818E-2,-9.712911E-3,-3.3110312E-1,-1.8164434E-1,-5.1386323E-2,4.6654306E-2,1.4307673E-1,2.4050187E-1,3.5030532E-1,5.5514556E-1,1.2930746E-2,1.5726577E-2,1.7682543E-2,2.001639E-2,2.2779213E-2,2.4781317E-2,2.7370881E-2,3.0062541E-2,-3.8870046E-1,-3.0374297E-1,-2.1958242E-1,-1.4051662E-1,-8.30031E-2,-2.3171604E-2,2.5457919E-2,7.336488E-2,1.1798804E-1,3.4434933E-3,2.1677803E-1,2.6403657E-1,3.2180655E-1,3.8504225E-1,9.603322E-3,1.151823E-2,-8.51231E-3,-7.4330936E-3,-6.4902883E-3,-5.619219E-3,-4.7433292E-3,-4.06202E-3,-3.1519462E-3,-2.5343155E-3,-1.9168487E-3,-1.2829092E-3,-8.026945E-4,-2.7571802E-4,2.0993844E-4,7.424128E-4,1.2344694E-3,1.6716358E-3,2.1569E-3,2.6324766E-3,4.10345E-3,4.5781126E-3,5.050653E-3,5.5131805E-3,6.0789776E-3,6.7255036E-3,7.4696895E-3,8.2139075E-3],"categories":[],"categories_nodes":[],"categories_segments":[],"categories_sizes":[],"default_left":[0,0,0,0,0,0,0,0,0,0,0,0,0,0,0,0,0,0,0,0,0,0,0,0,0,0,0,0,0,0,0,0,0,0,0,0,0,0,0,0,0,0,0,0,0,0,0,0,0,0,0,0,0,0,0,0,0,0,0,0,0,0,0,0,0,0,0,0,0,0,0,0,0,0,0,0,0,0,0,0,0,0,0,0,0,0,0,0,0,0,0,0,0,0,0,0,0],"id":6,"left_children":[1,3,5,7,9,11,13,15,17,19,21,23,25,27,29,-1,-1,31,33,-1,-1,35,37,39,41,43,45,47,49,51,53,-1,-1,-1,-1,-1,-1,-1,-1,55,57,59,61,63,65,67,69,-1,-1,-1,-1,-1,-1,-1,-1,71,73,75,77,79,81,83,85,87,-1,89,91,93,95,-1,-1,-1,-1,-1,-1,-1,-1,-1,-1,-1,-1,-1,-1,-1,-1,-1,-1,-1,-1,-1,-1,-1,-1,-1,-1,-1,-1],"loss_changes":[1.2025302E4,6.3796387E2,4.1586997E3,1.6546289E2,7.786182E1,6.583132E2,2.1585498E2,9.493164E0,1.7066406E1,3.9227905E0,7.3448486E0,1.3570096E2,6.897339E1,3.51532E1,3.8259766E1,0E0,0E0,3.095703E-1,1.9919434E0,0E0,0E0,1.2400818E-1,1.0779877E0,1.9788498E1,1.1391219E1,1.1049438E1,1.7294922E1,2.3873596E0,4.4396973E0,2.8032227E0,2.6481934E0,0E0,0E0,0E0,0E0,0E0,0E0,0E0,0E0,2.0818481E0,3.7809753E0,1.6332192E0,1.896493E0,1.446312E0,1.5016174E0,4.0388794E0,4.4125366E-1,0E0,0E0,0E0,0E0,0E0,0E0,0E0,0E0,1.2245941E-1,3.5884857E-1,3.1959915E-1,2.570095E-1,2.0304346E-1,1.5388125E-1,3.2607377E-1,1.7122793E-1,1.3545513E-1,0E0,1.4952087E-1,1.1717224E-1,4.961853E-1,4.0698242E-1,0E0,0E0,0E0,0E0,0E0,0E0,0E0,0E0,0E0,0E0,0E0,0E0,0E0,0E0,0E0,0E0,0E0,0E0,0E0,0E0,0E0,0E0,0E0,0E0,0E0,0E0,0E0,0E0],"parents":[2147483647,0,0,1,1,2,2,3,3,4,4,5,5,6,6,7,7,8,8,9,9,10,10,11,11,12,12,13,13,14,14,17,17,18,18,21,21,22,22,23,23,24,24,25,25,26,26,27,27,28,28,29,29,30,30,39,39,40,40,41,41,42,42,43,43,44,44,45,45,46,46,55,55,56,56,57,57,58,58,59,59,60,60,61,61,62,62,63,63,65,65,66,66,67,67,68,68],"right_children":[2,4,6,8,10,12,14,16,18,20,22,24,26,28,30,-1,-1,32,34,-1,-1,36,38,40,42,44,46,48,50,52,54,-1,-1,-1,-1,-1,-1,-1,-1,56,58,60,62,64,66,68,70,-1,-1,-1,-1,-1,-1,-1,-1,72,74,76,78,80,82,84,86,88,-1,90,92,94,96,-1,-1,-1,-1,-1,-1,-1,-1,-1,-1,-1,-1,-1,-1,-1,-1,-1,-1,-1,-1,-1,-1,-1,-1,-1,-1,-1,-1],"split_conditions":[6.6705E1,6.5935E1,6.7895E1,6.543E1,6.624E1,6.7315E1,6.8415E1,6.5135E1,6.5695E1,6.6095E1,6.65E1,6.709E1,6.7535E1,6.813E1,6.8688446E1,-3.820534E-2,-3.374531E-2,6.560507E1,6.58E1,-2.117353E-2,-1.8256653E-2,6.644E1,6.661E1,6.692E1,6.721E1,6.743E1,6.770611E1,6.8025E1,6.8275E1,6.855E1,6.882244E1,-2.92328E-2,-2.7719209E-2,-2.6004978E-2,-2.380533E-2,-1.4773796E-2,-1.3065921E-2,-1.1619818E-2,-9.712911E-3,6.682E1,6.7E1,6.7155E1,6.726807E1,6.738E1,6.7485E1,6.761035E1,6.7815E1,1.2930746E-2,1.5726577E-2,1.7682543E-2,2.001639E-2,2.2779213E-2,2.4781317E-2,2.7370881E-2,3.0062541E-2,6.675342E1,6.687E1,6.6961624E1,6.704872E1,6.7115E1,6.718E1,6.724E1,6.7293655E1,6.735E1,3.4434933E-3,6.745521E1,6.7510895E1,6.7574036E1,6.765701E1,9.603322E-3,1.151823E-2,-8.51231E-3,-7.4330936E-3,-6.4902883E-3,-5.619219E-3,-4.7433292E-3,-4.06202E-3,-3.1519462E-3,-2.5343155E-3,-1.9168487E-3,-1.2829092E-3,-8.026945E-4,-2.7571802E-4,2.0993844E-4,7.424128E-4,1.2344694E-3,1.6716358E-3,2.1569E-3,2.6324766E-3,4.10345E-3,4.5781126E-3,5.050653E-3,5.5131805E-3,6.0789776E-3,6.7255036E-3,7.4696895E-3,8.2139075E-3],"split_indices":[3,2,3,2,9,2,2,9,3,2,0,3,18,2,19,0,0,18,2,0,0,3,3,3,3,3,19,3,18,3,18,0,0,0,0,0,0,0,0,3,2,3,18,3,3,18,2,0,0,0,0,0,0,0,0,18,3,18,18,2,3,3,18,3,0,18,18,18,18,0,0,0,0,0,0,0,0,0,0,0,0,0,0,0,0,0,0,0,0,0,0,0,0,0,0,0,0],"split_type":[0,0,0,0,0,0,0,0,0,0,0,0,0,0,0,0,0,0,0,0,0,0,0,0,0,0,0,0,0,0,0,0,0,0,0,0,0,0,0,0,0,0,0,0,0,0,0,0,0,0,0,0,0,0,0,0,0,0,0,0,0,0,0,0,0,0,0,0,0,0,0,0,0,0,0,0,0,0,0,0,0,0,0,0,0,0,0,0,0,0,0,0,0,0,0,0,0],"sum_hessian":[2.9955E4,6.188E3,2.3767E4,4.067E3,2.121E3,1.8484E4,5.283E3,1.05E3,3.017E3,9.78E2,1.143E3,9.021E3,9.463E3,2.434E3,2.849E3,6.03E2,4.47E2,1.634E3,1.383E3,6.03E2,3.75E2,4.56E2,6.87E2,3.837E3,5.184E3,4.799E3,4.664E3,6.81E2,1.753E3,1.787E3,1.062E3,8.38E2,7.96E2,9.52E2,4.31E2,3.39E2,1.17E2,4.62E2,2.25E2,1.395E3,2.442E3,1.832E3,3.352E3,2.008E3,2.791E3,4.204E3,4.6E2,4.69E2,2.12E2,5.96E2,1.157E3,6.88E2,1.099E3,4.62E2,6E2,4.45E2,9.5E2,1.268E3,1.174E3,8.63E2,9.69E2,1.87E3,1.482E3,1.081E3,9.27E2,1.395E3,1.396E3,2.315E3,1.889E3,1.05E2,3.55E2,1.33E2,3.12E2,4.9E2,4.6E2,6.07E2,6.61E2,5.2E2,6.54E2,5.11E2,3.52E2,3.44E2,6.25E2,8.2E2,1.05E3,6.96E2,7.86E2,6.25E2,4.56E2,7.22E2,6.73E2,7.13E2,6.83E2,1.046E3,1.269E3,1.313E3,5.76E2],"tree_param":{"num_deleted":"0","num_feature":"25","num_nodes":"97","size_leaf_vector":"1"}},{"base_weights":[-1.2450428E-3,-1.2165585E0,3.1835157E-1,-1.4496043E0,-7.965534E-1,1.0330162E-1,1.0929931E0,-1.7834128E0,-1.3327497E0,-9.996499E-1,-6.0609835E-1,-9.12353E-2,2.8263846E-1,8.9085865E-1,1.2772509E0,-3.754696E-2,-3.3152346E-2,-1.4020113E0,-1.2559532E0,-2.1227118E-2,-1.8346978E-2,-7.0465267E-1,-5.384724E-1,-2.3174655E-1,1.2440497E-2,1.9924274E-1,3.724519E-1,7.201433E-1,9.6097696E-1,1.1934515E0,1.4312295E0,-2.8935444E-2,-2.7441552E-2,-2.5712145E-2,-2.3856737E-2,-1.4841969E-2,-1.32939415E-2,-1.1373069E-2,-9.468732E-3,-3.189729E-1,-1.753456E-1,-5.384562E-2,4.4143945E-2,1.408778E-1,2.383836E-1,3.4556538E-1,5.530078E-1,1.2942094E-2,1.5827885E-2,9.128446E-1,2.028165E-2,2.3104772E-2,2.4978846E-2,2.737376E-2,2.9764822E-2,-3.6115167E-1,-2.8139165E-1,-2.1301511E-1,-1.3807562E-1,-8.499215E-2,-2.895093E-2,2.163748E-2,7.016062E-2,1.1578148E-1,3.361639E-3,2.124577E-1,2.616074E-1,3.1992403E-1,3.8058895E-1,9.270137E-3,1.14182355E-2,1.7349012E-2,1.8794132E-2,-8.047824E-3,-6.8066847E-3,-5.9401975E-3,-5.1762057E-3,-4.588157E-3,-3.999845E-3,-3.0543427E-3,-2.441314E-3,-1.9302609E-3,-1.4061285E-3,-8.4910996E-4,-3.2297205E-4,1.7466249E-4,7.101212E-4,1.0930905E-3,1.5785893E-3,2.1129095E-3,2.589223E-3,4.008795E-3,4.4789673E-3,4.9684886E-3,5.463611E-3,6.037979E-3,6.6649704E-3,7.3809316E-3,8.045072E-3],"categories":[],"categories_nodes":[],"categories_segments":[],"categories_sizes":[],"default_left":[0,0,0,0,0,0,0,0,0,0,0,0,0,0,0,0,0,0,0,0,0,0,0,0,0,0,0,0,0,0,0,0,0,0,0,0,0,0,0,0,0,0,0,0,0,0,0,0,0,0,0,0,0,0,0,0,0,0,0,0,0,0,0,0,0,0,0,0,0,0,0,0,0,0,0,0,0,0,0,0,0,0,0,0,0,0,0,0,0,0,0,0,0,0,0,0,0,0,0],"id":7,"left_children":[1,3,5,7,9,11,13,15,17,19,21,23,25,27,29,-1,-1,31,33,-1,-1,35,37,39,41,43,45,47,49,51,53,-1,-1,-1,-1,-1,-1,-1,-1,55,57,59,61,63,65,67,69,-1,-1,71,-1,-1,-1,-1,-1,73,75,77,79,81,83,85,87,89,-1,91,93,95,97,-1,-1,-1,-1,-1,-1,-1,-1,-1,-1,-1,-1,-1,-1,-1,-1,-1,-1,-1,-1,-1,-1,-1,-1,-1,-1,-1,-1,-1,-1],"loss_changes":[1.1692307E4,6.123594E2,3.9704795E3,1.5482227E2,8.600037E1,6.5092444E2,1.9175342E2,9.200684E0,1.4137695E1,4.5213623E0,7.3384094E0,1.3038307E2,7.263928E1,2.8910278E1,3.322119E1,0E0,0E0,1.0913086E-1,1.137207E0,0E0,0E0,2.0692444E-1,1.0871277E0,1.8638733E1,1.0827196E1,1.1470932E1,2.249408E1,3.2556458E0,3.5474854E0,2.2868652E0,1.3468018E0,0E0,0E0,0E0,0E0,0E0,0E0,0E0,0E0,2.261795E0,3.2136917E0,1.290103E0,2.0390997E0,1.3623772E0,1.7585297E0,3.5333252E0,7.032471E-1,0E0,0E0,3.1652832E-1,0E0,0E0,0E0,0E0,0E0,4.6315002E-1,2.028122E-1,1.9898224E-1,2.5420952E-1,1.1841726E-1,1.5975624E-1,3.3435452E-1,2.1541548E-1,1.3274479E-1,0E0,1.5245056E-1,1.7395782E-1,4.6525574E-1,2.803955E-1,0E0,0E0,0E0,0E0,0E0,0E0,0E0,0E0,0E0,0E0,0E0,0E0,0E0,0E0,0E0,0E0,0E0,0E0,0E0,0E0,0E0,0E0,0E0,0E0,0E0,0E0,0E0,0E0,0E0,0E0],"parents":[2147483647,0,0,1,1,2,2,3,3,4,4,5,5,6,6,7,7,8,8,9,9,10,10,11,11,12,12,13,13,14,14,17,17,18,18,21,21,22,22,23,23,24,24,25,25,26,26,27,27,28,28,29,29,30,30,39,39,40,40,41,41,42,42,43,43,44,44,45,45,46,46,49,49,55,55,56,56,57,57,58,58,59,59,60,60,61,61,62,62,63,63,65,65,66,66,67,67,68,68],"right_children":[2,4,6,8,10,12,14,16,18,20,22,24,26,28,30,-1,-1,32,34,-1,-1,36,38,40,42,44,46,48,50,52,54,-1,-1,-1,-1,-1,-1,-1,-1,56,58,60,62,64,66,68,70,-1,-1,72,-1,-1,-1,-1,-1,74,76,78,80,82,84,86,88,90,-1,92,94,96,98,-1,-1,-1,-1,-1,-1,-1,-1,-1,-1,-1,-1,-1,-1,-1,-1,-1,-1,-1,-1,-1,-1,-1,-1,-1,-1,-1,-1,-1,-1],"split_conditions":[6.6705E1,6.5905E1,6.7905E1,6.544E1,6.6245E1,6.7315E1,6.84611E1,6.5145E1,6.567E1,6.606248E1,6.65E1,6.709E1,6.755E1,6.817908E1,6.872625E1,-3.754696E-2,-3.3152346E-2,6.5586266E1,6.577598E1,-2.1227118E-2,-1.8346978E-2,6.638735E1,6.660712E1,6.693E1,6.7205E1,6.743E1,6.770636E1,6.8025E1,6.832565E1,6.860001E1,6.886E1,-2.8935444E-2,-2.7441552E-2,-2.5712145E-2,-2.3856737E-2,-1.4841969E-2,-1.32939415E-2,-1.1373069E-2,-9.468732E-3,6.68445E1,6.701E1,6.7155E1,6.726428E1,6.7385E1,6.748393E1,6.762E1,6.7835E1,1.2942094E-2,1.5827885E-2,6.8255E1,2.028165E-2,2.3104772E-2,2.4978846E-2,2.737376E-2,2.9764822E-2,6.678E1,6.6895E1,6.6961624E1,6.7065E1,6.7125E1,6.718E1,6.724E1,6.728562E1,6.735E1,3.361639E-3,6.7465E1,6.7515E1,6.757766E1,6.765701E1,9.270137E-3,1.14182355E-2,1.7349012E-2,1.8794132E-2,-8.047824E-3,-6.8066847E-3,-5.9401975E-3,-5.1762057E-3,-4.588157E-3,-3.999845E-3,-3.0543427E-3,-2.441314E-3,-1.9302609E-3,-1.4061285E-3,-8.4910996E-4,-3.2297205E-4,1.7466249E-4,7.101212E-4,1.0930905E-3,1.5785893E-3,2.1129095E-3,2.589223E-3,4.008795E-3,4.4789673E-3,4.9684886E-3,5.463611E-3,6.037979E-3,6.6649704E-3,7.3809316E-3,8.045072E-3],"split_indices":[3,2,2,15,2,2,18,0,2,18,3,3,1,18,18,0,0,18,18,0,0,18,19,3,3,3,20,3,18,18,3,0,0,0,0,0,0,0,0,18,3,1,18,1,18,3,1,0,0,3,0,0,0,0,0,3,3,18,1,1,3,3,18,3,0,1,3,18,18,0,0,0,0,0,0,0,0,0,0,0,0,0,0,0,0,0,0,0,0,0,0,0,0,0,0,0,0,0,0],"split_type":[0,0,0,0,0,0,0,0,0,0,0,0,0,0,0,0,0,0,0,0,0,0,0,0,0,0,0,0,0,0,0,0,0,0,0,0,0,0,0,0,0,0,0,0,0,0,0,0,0,0,0,0,0,0,0,0,0,0,0,0,0,0,0,0,0,0,0,0,0,0,0,0,0,0,0,0,0,0,0,0,0,0,0,0,0,0,0,0,0,0,0,0,0,0,0,0,0,0,0],"sum_hessian":[3.0101E4,6.267E3,2.3834E4,4.029E3,2.238E3,1.8656E4,5.178E3,1.041E3,2.988E3,1.081E3,1.157E3,8.949E3,9.707E3,2.472E3,2.706E3,5.88E2,4.53E2,1.562E3,1.426E3,6.11E2,4.7E2,4.67E2,6.9E2,3.799E3,5.15E3,5.035E3,4.672E3,7.23E2,1.749E3,1.758E3,9.48E2,6.07E2,9.55E2,9.57E2,4.69E2,2.32E2,2.35E2,4.66E2,2.24E2,1.49E3,2.309E3,1.666E3,3.484E3,2.023E3,3.012E3,4.069E3,6.03E2,3.62E2,3.61E2,9.27E2,8.22E2,1.054E3,7.04E2,4.64E2,4.84E2,6.98E2,7.92E2,1.146E3,1.163E3,7.39E2,9.27E2,1.869E3,1.615E3,1.055E3,9.68E2,1.428E3,1.584E3,2.355E3,1.714E3,1.05E2,4.98E2,3.57E2,5.7E2,2.28E2,4.7E2,4.61E2,3.31E2,5E2,6.46E2,6.03E2,5.6E2,4.11E2,3.28E2,4.5E2,4.77E2,9.69E2,9E2,5.86E2,1.029E3,6.11E2,4.44E2,7.07E2,7.21E2,7.51E2,8.33E2,1.011E3,1.344E3,1.13E3,5.84E2],"tree_param":{"num_deleted":"0","num_feature":"25","num_nodes":"99","size_leaf_vector":"1"}},{"base_weights":[-1.6442027E-3,-1.1911155E0,3.100219E-1,-1.4137399E0,-7.594364E-1,9.587218E-2,1.0596087E0,-1.7437367E0,-1.2977995E0,-9.610066E-1,-5.915305E-1,-9.098924E-2,2.713489E-1,8.5151213E-1,1.2410514E0,-3.6716945E-2,-3.240684E-2,-1.3628736E0,-1.2071345E0,-2.0273527E-2,-1.7493898E-2,-6.866305E-1,-5.2696353E-1,-2.3190539E-1,8.094232E-3,1.8471E-1,3.5001332E-1,6.687991E-1,9.252775E-1,1.1537361E0,1.387057E0,-2.7902761E-2,-2.6278563E-2,-2.4873022E-2,-2.281614E-2,-1.4207849E-2,-1.2622983E-2,-1.115707E-2,-9.324026E-3,-3.1661284E-1,-1.792921E-1,-5.7408635E-2,4.203121E-2,1.2730813E-1,2.2024977E-1,3.3106786E-1,5.310376E-1,1.2383862E-2,1.5156727E-2,1.697845E-2,1.9220782E-2,2.1884756E-2,2.3788491E-2,2.6297517E-2,2.8904563E-2,-3.7329203E-1,-2.9109362E-1,-2.1139848E-1,-1.389276E-1,-9.114891E-2,-3.169275E-2,2.2365289E-2,6.873124E-2,2.1281873E-3,3.019479E-3,1.9765009E-1,2.4419968E-1,3.0157477E-1,3.664936E-1,9.018744E-3,1.1036887E-2,-8.215773E-3,-7.156037E-3,-6.2432126E-3,-5.3852103E-3,-4.5903577E-3,-3.9450526E-3,-3.0484572E-3,-2.5187966E-3,-2.0361932E-3,-1.5452068E-3,-9.6917775E-4,-3.861195E-4,1.6982511E-4,7.063917E-4,1.0992152E-3,1.5282492E-3,3.7130227E-3,4.1836468E-3,4.652119E-3,5.101104E-3,5.652749E-3,6.3357865E-3,7.0115104E-3,7.7180075E-3],"categories":[],"categories_nodes":[],"categories_segments":[],"categories_sizes":[],"default_left":[0,0,0,0,0,0,0,0,0,0,0,0,0,0,0,0,0,0,0,0,0,0,0,0,0,0,0,0,0,0,0,0,0,0,0,0,0,0,0,0,0,0,0,0,0,0,0,0,0,0,0,0,0,0,0,0,0,0,0,0,0,0,0,0,0,0,0,0,0,0,0,0,0,0,0,0,0,0,0,0,0,0,0,0,0,0,0,0,0,0,0,0,0,0,0],"id":8,"left_children":[1,3,5,7,9,11,13,15,17,19,21,23,25,27,29,-1,-1,31,33,-1,-1,35,37,39,41,43,45,47,49,51,53,-1,-1,-1,-1,-1,-1,-1,-1,55,57,59,61,63,65,67,69,-1,-1,-1,-1,-1,-1,-1,-1,71,73,75,77,79,81,83,85,-1,-1,87,89,91,93,-1,-1,-1,-1,-1,-1,-1,-1,-1,-1,-1,-1,-1,-1,-1,-1,-1,-1,-1,-1,-1,-1,-1,-1,-1,-1],"loss_changes":[1.1150821E4,5.9908496E2,3.8258228E3,1.553291E2,7.141943E1,6.079152E2,1.9890723E2,9.1640625E0,1.6361328E1,3.5002441E0,6.779358E0,1.2537081E2,6.509741E1,3.267163E1,3.444043E1,0E0,0E0,9.6069336E-1,1.69104E0,0E0,0E0,1.6729736E-1,1.048172E0,1.6464355E1,1.1724131E1,9.25827E0,1.7006409E1,2.6842957E0,3.9816895E0,2.4675293E0,2.520996E0,0E0,0E0,0E0,0E0,0E0,0E0,0E0,0E0,1.9437866E0,2.9370804E0,1.5589008E0,1.8225937E0,8.4599876E-1,1.4726715E0,4.630829E0,5.394592E-1,0E0,0E0,0E0,0E0,0E0,0E0,0E0,0E0,1.0684204E-1,3.6808777E-1,2.810135E-1,1.5905762E-1,1.07326984E-1,2.1151936E-1,3.5951614E-1,1.516056E-1,0E0,0E0,1.6194534E-1,1.11839294E-1,6.2561035E-1,5.001526E-1,0E0,0E0,0E0,0E0,0E0,0E0,0E0,0E0,0E0,0E0,0E0,0E0,0E0,0E0,0E0,0E0,0E0,0E0,0E0,0E0,0E0,0E0,0E0,0E0,0E0,0E0],"parents":[2147483647,0,0,1,1,2,2,3,3,4,4,5,5,6,6,7,7,8,8,9,9,10,10,11,11,12,12,13,13,14,14,17,17,18,18,21,21,22,22,23,23,24,24,25,25,26,26,27,27,28,28,29,29,30,30,39,39,40,40,41,41,42,42,43,43,44,44,45,45,46,46,55,55,56,56,57,57,58,58,59,59,60,60,61,61,62,62,65,65,66,66,67,67,68,68],"right_children":[2,4,6,8,10,12,14,16,18,20,22,24,26,28,30,-1,-1,32,34,-1,-1,36,38,40,42,44,46,48,50,52,54,-1,-1,-1,-1,-1,-1,-1,-1,56,58,60,62,64,66,68,70,-1,-1,-1,-1,-1,-1,-1,-1,72,74,76,78,80,82,84,86,-1,-1,88,90,92,94,-1,-1,-1,-1,-1,-1,-1,-1,-1,-1,-1,-1,-1,-1,-1,-1,-1,-1,-1,-1,-1,-1,-1,-1,-1,-1],"split_conditions":[6.6705E1,6.5945E1,6.7895E1,6.5440605E1,6.624E1,6.732E1,6.8415E1,6.5135E1,6.572E1,6.6095E1,6.649819E1,6.708E1,6.7525E1,6.8148056E1,6.8688446E1,-3.6716945E-2,-3.240684E-2,6.564E1,6.58E1,-2.0273527E-2,-1.7493898E-2,6.6445E1,6.66E1,6.692E1,6.7205E1,6.7410995E1,6.7715E1,6.8015E1,6.8275E1,6.855E1,6.882264E1,-2.7902761E-2,-2.6278563E-2,-2.4873022E-2,-2.281614E-2,-1.4207849E-2,-1.2622983E-2,-1.115707E-2,-9.324026E-3,6.682E1,6.7E1,6.713E1,6.727E1,6.737E1,6.7475E1,6.7605E1,6.785E1,1.2383862E-2,1.5156727E-2,1.697845E-2,1.9220782E-2,2.1884756E-2,2.3788491E-2,2.6297517E-2,2.8904563E-2,6.6765E1,6.687E1,6.695E1,6.705E1,6.7115E1,6.7165E1,6.724E1,6.7295E1,2.1281873E-3,3.019479E-3,6.7445E1,6.75E1,6.7565E1,6.7645E1,9.018744E-3,1.1036887E-2,-8.215773E-3,-7.156037E-3,-6.2432126E-3,-5.3852103E-3,-4.5903577E-3,-3.9450526E-3,-3.0484572E-3,-2.5187966E-3,-2.0361932E-3,-1.5452068E-3,-9.6917775E-4,-3.861195E-4,1.6982511E-4,7.063917E-4,1.0992152E-3,1.5282492E-3,3.7130227E-3,4.1836468E-3,4.652119E-3,5.101104E-3,5.652749E-3,6.3357865E-3,7.0115104E-3,7.7180075E-3],"split_indices":[3,3,3,19,9,3,2,9,1,2,19,3,3,19,19,0,0,1,2,0,0,1,2,3,3,19,1,2,3,3,19,0,0,0,0,0,0,0,0,3,2,2,3,1,3,3,10,0,0,0,0,0,0,0,0,1,3,2,3,1,2,3,1,0,0,3,3,3,3,0,0,0,0,0,0,0,0,0,0,0,0,0,0,0,0,0,0,0,0,0,0,0,0,0,0],"split_type":[0,0,0,0,0,0,0,0,0,0,0,0,0,0,0,0,0,0,0,0,0,0,0,0,0,0,0,0,0,0,0,0,0,0,0,0,0,0,0,0,0,0,0,0,0,0,0,0,0,0,0,0,0,0,0,0,0,0,0,0,0,0,0,0,0,0,0,0,0,0,0,0,0,0,0,0,0,0,0,0,0,0,0,0,0,0,0,0,0,0,0,0,0,0,0],"sum_hessian":[3.0077E4,6.244E3,2.3833E4,4.118E3,2.126E3,1.8538E4,5.295E3,1.067E3,3.051E3,9.64E2,1.162E3,8.978E3,9.56E3,2.469E3,2.826E3,6.03E2,4.64E2,1.768E3,1.283E3,5.92E2,3.72E2,4.66E2,6.96E2,3.706E3,5.272E3,4.551E3,5.009E3,7.13E2,1.756E3,1.774E3,1.052E3,1.049E3,7.19E2,8.16E2,4.67E2,3.18E2,1.48E2,4.56E2,2.4E2,1.418E3,2.288E3,1.799E3,3.473E3,1.742E3,2.809E3,4.537E3,4.72E2,4.63E2,2.5E2,5.68E2,1.188E3,6.77E2,1.097E3,4.8E2,5.72E2,4.36E2,9.82E2,1.272E3,1.016E3,7.77E2,1.022E3,2.001E3,1.472E3,9.28E2,8.14E2,1.45E3,1.359E3,2.481E3,2.056E3,1.02E2,3.7E2,1.2E2,3.16E2,4.93E2,4.89E2,5.51E2,7.21E2,4.93E2,5.23E2,4.36E2,3.41E2,4.33E2,5.89E2,9.67E2,1.034E3,5.3E2,9.42E2,7.19E2,7.31E2,6.68E2,6.91E2,1.114E3,1.367E3,1.14E3,9.16E2],"tree_param":{"num_deleted":"0","num_feature":"25","num_nodes":"95","size_leaf_vector":"1"}},{"base_weights":[1.143478E-4,-1.1822925E0,3.0199704E-1,-1.3934008E0,-7.8342795E-1,8.823601E-2,1.0277878E0,-1.7110369E0,-1.2795404E0,-9.6010375E-1,-5.9955037E-1,-1.00461476E-1,2.5457472E-1,8.194474E-1,1.2170072E0,-3.6070276E-2,-3.1826627E-2,-2.6925879E-2,-1.2067106E0,-2.0395018E-2,-1.7606998E-2,-6.7877144E-1,-5.328979E-1,-2.401919E-1,-2.5290763E-3,1.6788414E-1,3.324952E-1,6.2021846E-1,8.9745957E-1,1.1292696E0,1.3592267E0,-2.4708802E-2,-2.296595E-2,-1.4254631E-2,-1.2829789E-2,-1.12564135E-2,-9.890614E-3,-3.3236352E-1,-1.8884522E-1,-7.240975E-2,3.0356677E-2,1.1328035E-1,2.0726599E-1,3.0187643E-1,4.004274E-1,1.1727249E-2,1.3716097E-2,1.6232561E-2,9.360833E-1,2.1438431E-2,2.3301108E-2,2.5703933E-2,2.8297149E-2,-3.9087984E-1,-3.0134916E-1,-2.1694444E-1,-1.45227E-1,-1.9656075E-3,-4.5315243E-2,7.12358E-3,5.3213544E-2,9.605101E-2,2.795241E-3,1.8574224E-1,2.2934555E-1,2.7362958E-1,3.2255116E-1,7.4531385E-3,5.054698E-1,1.8133793E-2,1.9350633E-2,-8.388713E-3,-7.2319782E-3,-6.3387672E-3,-5.6373905E-3,-4.8111035E-3,-4.043105E-3,-3.3010787E-3,-2.710596E-3,-1.1914679E-3,-6.779326E-4,-1.3760569E-4,3.70992E-4,8.474547E-4,1.3328812E-3,1.7335868E-3,2.1306186E-3,3.4638604E-3,3.918773E-3,4.340426E-3,4.773221E-3,5.239679E-3,5.7217954E-3,6.1979187E-3,6.7385607E-3,8.9076925E-3,1.0616249E-2],"categories":[],"categories_nodes":[],"categories_segments":[],"categories_sizes":[],"default_left":[0,0,0,0,0,0,0,0,0,0,0,0,0,0,0,0,0,0,0,0,0,0,0,0,0,0,0,0,0,0,0,0,0,0,0,0,0,0,0,0,0,0,0,0,0,0,0,0,0,0,0,0,0,0,0,0,0,0,0,0,0,0,0,0,0,0,0,0,0,0,0,0,0,0,0,0,0,0,0,0,0,0,0,0,0,0,0,0,0,0,0,0,0,0,0,0,0],"id":9,"left_children":[1,3,5,7,9,11,13,15,17,19,21,23,25,27,29,-1,-1,-1,31,-1,-1,33,35,37,39,41,43,45,47,49,51,-1,-1,-1,-1,-1,-1,53,55,57,59,61,63,65,67,-1,-1,-1,69,-1,-1,-1,-1,71,73,75,77,-1,79,81,83,85,-1,87,89,91,93,-1,95,-1,-1,-1,-1,-1,-1,-1,-1,-1,-1,-1,-1,-1,-1,-1,-1,-1,-1,-1,-1,-1,-1,-1,-1,-1,-1,-1,-1],"loss_changes":[1.0733788E4,5.1389746E2,3.7164258E3,1.4240283E2,6.8263794E1,5.808863E2,2.1385303E2,8.775635E0,1.2702637E1,4.2351685E0,5.1350403E0,1.18654526E2,6.638617E1,3.9806885E1,3.407715E1,0E0,0E0,0E0,9.626465E-1,0E0,0E0,1.4039612E-1,3.7605286E-1,1.6847183E1,1.1720101E1,9.993088E0,1.0651428E1,1.2276917E0,5.4195557E0,2.3857422E0,2.645874E0,0E0,0E0,0E0,0E0,0E0,0E0,2.199768E0,2.7837906E0,1.1394997E0,1.8412528E0,8.781128E-1,1.2429123E0,1.9989319E0,4.4964294E0,0E0,0E0,0E0,3.050537E-1,0E0,0E0,0E0,0E0,2.154007E-1,1.6545105E-1,4.3847656E-1,1.5124702E-1,0E0,1.2806427E-1,2.755022E-1,2.5168085E-1,1.07346535E-1,0E0,1.420021E-1,1.0101318E-1,1.4516449E-1,2.7001953E-1,0E0,2.7064514E-1,0E0,0E0,0E0,0E0,0E0,0E0,0E0,0E0,0E0,0E0,0E0,0E0,0E0,0E0,0E0,0E0,0E0,0E0,0E0,0E0,0E0,0E0,0E0,0E0,0E0,0E0,0E0,0E0],"parents":[2147483647,0,0,1,1,2,2,3,3,4,4,5,5,6,6,7,7,8,8,9,9,10,10,11,11,12,12,13,13,14,14,18,18,21,21,22,22,23,23,24,24,25,25,26,26,27,27,28,28,29,29,30,30,37,37,38,38,39,39,40,40,41,41,42,42,43,43,44,44,48,48,53,53,54,54,55,55,56,56,58,58,59,59,60,60,61,61,63,63,64,64,65,65,66,66,68,68],"right_children":[2,4,6,8,10,12,14,16,18,20,22,24,26,28,30,-1,-1,-1,32,-1,-1,34,36,38,40,42,44,46,48,50,52,-1,-1,-1,-1,-1,-1,54,56,58,60,62,64,66,68,-1,-1,-1,70,-1,-1,-1,-1,72,74,76,78,-1,80,82,84,86,-1,88,90,92,94,-1,96,-1,-1,-1,-1,-1,-1,-1,-1,-1,-1,-1,-1,-1,-1,-1,-1,-1,-1,-1,-1,-1,-1,-1,-1,-1,-1,-1,-1],"split_conditions":[6.6668175E1,6.591E1,6.789E1,6.546E1,6.626E1,6.7305E1,6.8425E1,6.5145E1,6.569E1,6.607E1,6.6495E1,6.707E1,6.7515E1,6.811485E1,6.869E1,-3.6070276E-2,-3.1826627E-2,-2.6925879E-2,6.578E1,-2.0395018E-2,-1.7606998E-2,6.6395E1,6.659E1,6.6895E1,6.7185E1,6.7405E1,6.7635E1,6.796214E1,6.8265E1,6.856E1,6.8835E1,-2.4708802E-2,-2.296595E-2,-1.4254631E-2,-1.2829789E-2,-1.12564135E-2,-9.890614E-3,6.681E1,6.701E1,6.7125E1,6.725E1,6.7355E1,6.7459366E1,6.757E1,6.771E1,1.1727249E-2,1.3716097E-2,1.6232561E-2,6.835E1,2.1438431E-2,2.3301108E-2,2.5703933E-2,2.8297149E-2,6.675E1,6.6855E1,6.6945E1,6.703E1,-1.9656075E-3,6.7165E1,6.722E1,6.728E1,6.733E1,2.795241E-3,6.7435E1,6.7485E1,6.755E1,6.76E1,7.4531385E-3,6.7835E1,1.8133793E-2,1.9350633E-2,-8.388713E-3,-7.2319782E-3,-6.3387672E-3,-5.6373905E-3,-4.8111035E-3,-4.043105E-3,-3.3010787E-3,-2.710596E-3,-1.1914679E-3,-6.779326E-4,-1.3760569E-4,3.70992E-4,8.474547E-4,1.3328812E-3,1.7335868E-3,2.1306186E-3,3.4638604E-3,3.918773E-3,4.340426E-3,4.773221E-3,5.239679E-3,5.7217954E-3,6.1979187E-3,6.7385607E-3,8.9076925E-3,1.0616249E-2],"split_indices":[19,3,1,1,1,3,3,0,1,1,15,3,3,19,3,0,0,0,3,0,0,1,1,3,3,3,3,19,1,1,1,0,0,0,0,0,0,1,1,3,3,3,19,3,0,0,0,0,1,0,0,0,0,3,3,3,3,0,1,3,3,3,0,3,3,1,3,0,1,0,0,0,0,0,0,0,0,0,0,0,0,0,0,0,0,0,0,0,0,0,0,0,0,0,0,0,0],"split_type":[0,0,0,0,0,0,0,0,0,0,0,0,0,0,0,0,0,0,0,0,0,0,0,0,0,0,0,0,0,0,0,0,0,0,0,0,0,0,0,0,0,0,0,0,0,0,0,0,0,0,0,0,0,0,0,0,0,0,0,0,0,0,0,0,0,0,0,0,0,0,0,0,0,0,0,0,0,0,0,0,0,0,0,0,0,0,0,0,0,0,0,0,0,0,0,0,0],"sum_hessian":[3.0069E4,6.115E3,2.3954E4,3.997E3,2.118E3,1.8505E4,5.449E3,1.051E3,2.946E3,1.078E3,1.04E3,8.67E3,9.835E3,2.596E3,2.853E3,5.85E2,4.66E2,1.528E3,1.418E3,6.1E2,4.68E2,4.71E2,5.69E2,3.572E3,5.098E3,4.657E3,5.178E3,7.33E2,1.863E3,1.77E3,1.083E3,9.37E2,4.81E2,2.37E2,2.34E2,3.12E2,2.57E2,1.276E3,2.296E3,1.631E3,3.467E3,1.953E3,2.704E3,3.573E3,1.605E3,4.9E2,2.43E2,5.85E2,1.278E3,6.92E2,1.078E3,4.75E2,6.08E2,4.38E2,8.38E2,1.394E3,9.02E2,8.33E2,7.98E2,1.72E3,1.747E3,1.186E3,7.67E2,1.374E3,1.33E3,1.516E3,2.057E3,1.273E3,3.32E2,6.76E2,6.02E2,2.15E2,2.23E2,4.57E2,3.81E2,5.31E2,8.63E2,2.91E2,6.11E2,3.53E2,4.45E2,7.73E2,9.47E2,9.69E2,7.78E2,6.31E2,5.55E2,6.24E2,7.5E2,5.83E2,7.47E2,7.95E2,7.21E2,1.106E3,9.51E2,1.04E2,2.28E2],"tree_param":{"num_deleted":"0","num_feature":"25","num_nodes":"97","size_leaf_vector":"1"}},{"base_weights":[4.3033524E-3,-1.145309E0,3.009121E-1,-1.3677917E0,-7.462763E-1,9.469254E-2,1.029414E0,-1.6799183E0,-1.2523359E0,-9.3981165E-1,-5.702985E-1,-8.761873E-2,2.632354E-1,8.3627665E-1,1.2016394E0,-3.5302974E-2,-3.1106345E-2,-2.6480515E-2,-1.1874316E0,-2.0007467E-2,-1.7241294E-2,-6.63738E-1,-5.0808066E-1,-2.1836217E-1,9.913632E-3,1.8522164E-1,3.4915945E-1,6.728972E-1,9.040378E-1,1.1231877E0,1.3473448E0,-2.4295712E-2,-2.2446921E-2,-1.3698746E-2,-1.2068022E-2,-1.0955973E-2,-9.298055E-3,-3.0137596E-1,-1.6516958E-1,-5.082851E-2,3.990992E-2,1.304185E-1,2.2405891E-1,3.253657E-1,5.196246E-1,1.2140432E-2,1.4857229E-2,1.7072188E-2,1.8957095E-2,2.1565624E-2,2.3346951E-2,2.5989583E-2,2.8295578E-2,-3.473552E-1,-2.7019686E-1,-1.9997296E-1,-1.3028432E-1,-1.6168191E-3,-2.735154E-2,1.7074067E-2,6.1392065E-2,1.0680059E-1,3.1689464E-3,1.9928458E-1,2.4600616E-1,3.0133095E-1,3.5835278E-1,8.805734E-3,1.0746288E-2,-7.5993338E-3,-6.5111225E-3,-5.7725054E-3,-4.984495E-3,-4.220557E-3,-3.6514278E-3,-2.873435E-3,-2.2980045E-3,-7.950089E-4,-3.0560768E-4,9.45081E-5,5.406199E-4,9.705574E-4,1.4729385E-3,1.8867938E-3,2.3378544E-3,3.7679535E-3,4.211682E-3,4.6724672E-3,5.1366747E-3,5.6894943E-3,6.278039E-3,6.9463956E-3,7.585933E-3],"categories":[],"categories_nodes":[],"categories_segments":[],"categories_sizes":[],"default_left":[0,0,0,0,0,0,0,0,0,0,0,0,0,0,0,0,0,0,0,0,0,0,0,0,0,0,0,0,0,0,0,0,0,0,0,0,0,0,0,0,0,0,0,0,0,0,0,0,0,0,0,0,0,0,0,0,0,0,0,0,0,0,0,0,0,0,0,0,0,0,0,0,0,0,0,0,0,0,0,0,0,0,0,0,0,0,0,0,0,0,0,0,0],"id":10,"left_children":[1,3,5,7,9,11,13,15,17,19,21,23,25,27,29,-1,-1,-1,31,-1,-1,33,35,37,39,41,43,45,47,49,51,-1,-1,-1,-1,-1,-1,53,55,57,59,61,63,65,67,-1,-1,-1,-1,-1,-1,-1,-1,69,71,73,75,-1,77,79,81,83,-1,85,87,89,91,-1,-1,-1,-1,-1,-1,-1,-1,-1,-1,-1,-1,-1,-1,-1,-1,-1,-1,-1,-1,-1,-1,-1,-1,-1,-1],"loss_changes":[1.02449E4,5.460288E2,3.5878777E3,1.4042139E2,7.466394E1,5.72011E2,1.7425879E2,8.564453E0,1.1879883E1,4.081543E0,6.400757E0,1.14040764E2,6.4776E1,2.6924805E1,3.0298828E1,0E0,0E0,0E0,1.3552246E0,0E0,0E0,1.750946E-1,9.457855E-1,1.6822678E1,9.336334E0,1.0766037E1,1.8496643E1,2.9274292E0,3.0687256E0,2.3405762E0,1.2893066E0,0E0,0E0,0E0,0E0,0E0,0E0,2.0436401E0,2.8040695E0,1.1913829E0,1.6815834E0,1.3772125E0,1.5642242E0,3.0958557E0,5.521698E-1,0E0,0E0,0E0,0E0,0E0,0E0,0E0,0E0,3.0213165E-1,2.7319336E-1,1.8558884E-1,2.2384071E-1,0E0,1.4187765E-1,2.0446894E-1,2.74992E-1,1.3309097E-1,0E0,1.3242722E-1,1.503601E-1,4.073944E-1,2.6063538E-1,0E0,0E0,0E0,0E0,0E0,0E0,0E0,0E0,0E0,0E0,0E0,0E0,0E0,0E0,0E0,0E0,0E0,0E0,0E0,0E0,0E0,0E0,0E0,0E0,0E0,0E0],"parents":[2147483647,0,0,1,1,2,2,3,3,4,4,5,5,6,6,7,7,8,8,9,9,10,10,11,11,12,12,13,13,14,14,18,18,21,21,22,22,23,23,24,24,25,25,26,26,27,27,28,28,29,29,30,30,37,37,38,38,39,39,40,40,41,41,42,42,43,43,44,44,53,53,54,54,55,55,56,56,58,58,59,59,60,60,61,61,63,63,64,64,65,65,66,66],"right_children":[2,4,6,8,10,12,14,16,18,20,22,24,26,28,30,-1,-1,-1,32,-1,-1,34,36,38,40,42,44,46,48,50,52,-1,-1,-1,-1,-1,-1,54,56,58,60,62,64,66,68,-1,-1,-1,-1,-1,-1,-1,-1,70,72,74,76,-1,78,80,82,84,-1,86,88,90,92,-1,-1,-1,-1,-1,-1,-1,-1,-1,-1,-1,-1,-1,-1,-1,-1,-1,-1,-1,-1,-1,-1,-1,-1,-1,-1],"split_conditions":[6.6705E1,6.591E1,6.7915E1,6.546E1,6.626E1,6.732E1,6.846E1,6.5135E1,6.566216E1,6.606248E1,6.65E1,6.709E1,6.755E1,6.817861E1,6.872658E1,-3.5302974E-2,-3.1106345E-2,-2.6480515E-2,6.577598E1,-2.0007467E-2,-1.7241294E-2,6.644E1,6.6585E1,6.693E1,6.7205E1,6.743E1,6.770611E1,6.8025E1,6.831291E1,6.86E1,6.8895E1,-2.4295712E-2,-2.2446921E-2,-1.3698746E-2,-1.2068022E-2,-1.0955973E-2,-9.298055E-3,6.6835E1,6.701E1,6.7145E1,6.726E1,6.7385E1,6.7485E1,6.762E1,6.7835E1,1.2140432E-2,1.4857229E-2,1.7072188E-2,1.8957095E-2,2.1565624E-2,2.3346951E-2,2.5989583E-2,2.8295578E-2,6.678E1,6.688087E1,6.6985E1,6.7065E1,-1.6168191E-3,6.718E1,6.722989E1,6.7295E1,6.734E1,3.1689464E-3,6.7465E1,6.7515E1,6.757766E1,6.765701E1,8.805734E-3,1.0746288E-2,-7.5993338E-3,-6.5111225E-3,-5.7725054E-3,-4.984495E-3,-4.220557E-3,-3.6514278E-3,-2.873435E-3,-2.2980045E-3,-7.950089E-4,-3.0560768E-4,9.45081E-5,5.406199E-4,9.705574E-4,1.4729385E-3,1.8867938E-3,2.3378544E-3,3.7679535E-3,4.211682E-3,4.6724672E-3,5.1366747E-3,5.6894943E-3,6.278039E-3,6.9463956E-3,7.585933E-3],"split_indices":[3,3,3,1,1,3,3,9,18,18,3,3,1,19,19,0,0,0,18,0,0,3,3,3,3,3,19,15,18,1,1,0,0,0,0,0,0,3,3,3,3,1,3,3,1,0,0,0,0,0,0,0,0,3,18,1,1,0,3,18,1,3,0,1,3,18,18,0,0,0,0,0,0,0,0,0,0,0,0,0,0,0,0,0,0,0,0,0,0,0,0,0,0],"split_type":[0,0,0,0,0,0,0,0,0,0,0,0,0,0,0,0,0,0,0,0,0,0,0,0,0,0,0,0,0,0,0,0,0,0,0,0,0,0,0,0,0,0,0,0,0,0,0,0,0,0,0,0,0,0,0,0,0,0,0,0,0,0,0,0,0,0,0,0,0,0,0,0,0,0,0,0,0,0,0,0,0,0,0,0,0,0,0,0,0,0,0,0,0],"sum_hessian":[3.0043E4,6.161E3,2.3882E4,3.954E3,2.207E3,1.8614E4,5.268E3,1.064E3,2.89E3,1.049E3,1.158E3,8.942E3,9.672E3,2.486E3,2.782E3,6.24E2,4.4E2,1.364E3,1.526E3,5.83E2,4.66E2,4.59E2,6.99E2,3.82E3,5.122E3,5.071E3,4.601E3,7.32E2,1.754E3,1.814E3,9.68E2,1.062E3,4.64E2,3.32E2,1.27E2,3.58E2,3.41E2,1.49E3,2.33E3,1.693E3,3.429E3,2.105E3,2.966E3,4.04E3,5.61E2,3.82E2,3.5E2,8.25E2,9.29E2,9.12E2,9.02E2,5.78E2,3.9E2,5.98E2,8.92E2,1.164E3,1.166E3,7.42E2,9.51E2,1.663E3,1.766E3,1.145E3,9.6E2,1.398E3,1.568E3,2.343E3,1.697E3,1.07E2,4.54E2,2.33E2,3.65E2,4.68E2,4.24E2,7.05E2,4.59E2,6.19E2,5.47E2,4.68E2,4.83E2,7.43E2,9.2E2,8.64E2,9.02E2,5.17E2,6.28E2,7.21E2,6.77E2,7.42E2,8.26E2,1.011E3,1.332E3,1.123E3,5.74E2],"tree_param":{"num_deleted":"0","num_feature":"25","num_nodes":"93","size_leaf_vector":"1"}},{"base_weights":[4.6846503E-4,-1.1182528E0,2.9309046E-1,-1.3223885E0,-6.9939536E-1,9.0859056E-2,9.9645203E-1,-1.6438671E0,-1.2166165E0,-8.9775765E-1,-5.5880827E-1,-8.778883E-2,2.5254947E-1,8.020056E-1,1.1694931E0,-3.464734E-2,-3.0647393E-2,-1.2835054E0,-1.1286962E0,-1.8892994E-2,-1.654254E-2,-6.499253E-1,-4.9719822E-1,-2.1811597E-1,5.195234E-3,1.6989079E-1,3.2667366E-1,6.252714E-1,8.694528E-1,1.086869E0,1.3075576E0,-2.6360631E-2,-2.4838483E-2,-2.326944E-2,-2.1002198E-2,-1.3682077E-2,-1.2263623E-2,-1.0518877E-2,-8.759892E-3,-2.979474E-1,-1.6878866E-1,-6.021743E-2,3.494711E-2,1.18134245E-1,2.05602E-1,3.096913E-1,4.9752438E-1,1.1678396E-2,1.4184889E-2,1.5972145E-2,9.0551525E-1,2.0638015E-2,2.2440793E-2,2.5008436E-2,2.7399506E-2,-7.0086257E-3,-2.7478316E-1,-1.9954425E-1,-1.3151816E-1,-1.7217677E-3,-3.4593355E-2,1.2423124E-2,5.7579767E-2,1.9692362E-3,2.8539002E-3,1.854789E-1,4.548362E-3,2.781233E-1,3.405337E-1,8.477962E-3,1.0363304E-2,1.7602459E-2,1.8769229E-2,-5.8793644E-3,-5.0791823E-3,-4.330477E-3,-3.7217753E-3,-2.8873528E-3,-2.373753E-3,-9.7047735E-4,-5.027577E-4,-4.390674E-5,4.50245E-4,8.901029E-4,1.3799026E-3,3.5014504E-3,3.9162715E-3,5.1920554E-3,5.8184555E-3,6.4700264E-3,7.20378E-3],"categories":[],"categories_nodes":[],"categories_segments":[],"categories_sizes":[],"default_left":[0,0,0,0,0,0,0,0,0,0,0,0,0,0,0,0,0,0,0,0,0,0,0,0,0,0,0,0,0,0,0,0,0,0,0,0,0,0,0,0,0,0,0,0,0,0,0,0,0,0,0,0,0,0,0,0,0,0,0,0,0,0,0,0,0,0,0,0,0,0,0,0,0,0,0,0,0,0,0,0,0,0,0,0,0,0,0,0,0,0,0],"id":11,"left_children":[1,3,5,7,9,11,13,15,17,19,21,23,25,27,29,-1,-1,31,33,-1,-1,35,37,39,41,43,45,47,49,51,53,-1,-1,-1,-1,-1,-1,-1,-1,55,57,59,61,63,65,67,69,-1,-1,-1,71,-1,-1,-1,-1,-1,73,75,77,-1,79,81,83,-1,-1,85,-1,87,89,-1,-1,-1,-1,-1,-1,-1,-1,-1,-1,-1,-1,-1,-1,-1,-1,-1,-1,-1,-1,-1,-1],"loss_changes":[9.790757E3,5.292832E2,3.3720356E3,1.3972607E2,5.6220947E1,5.319225E2,1.7719043E2,7.4990234E0,1.7017578E1,2.0073853E0,6.3740234E0,1.0602455E2,5.916815E1,2.9209106E1,3.05083E1,0E0,0E0,9.1308594E-1,2.508667E0,0E0,0E0,1.8083191E-1,9.881592E-1,1.4295364E1,9.94109E0,8.426102E0,1.4628784E1,1.9922485E0,3.8857422E0,2.2392578E0,2.0065918E0,0E0,0E0,0E0,0E0,0E0,0E0,0E0,0E0,1.593605E0,2.5574646E0,1.0557041E0,1.789114E0,8.889942E-1,1.1448975E0,4.420044E0,4.7789E-1,0E0,0E0,0E0,1.6790771E-1,0E0,0E0,0E0,0E0,0E0,3.1246948E-1,2.4141312E-1,1.5135956E-1,0E0,1.04682684E-1,2.597749E-1,2.582693E-1,0E0,0E0,1.17572784E-1,0E0,4.6899414E-1,6.671753E-1,0E0,0E0,0E0,0E0,0E0,0E0,0E0,0E0,0E0,0E0,0E0,0E0,0E0,0E0,0E0,0E0,0E0,0E0,0E0,0E0,0E0,0E0],"parents":[2147483647,0,0,1,1,2,2,3,3,4,4,5,5,6,6,7,7,8,8,9,9,10,10,11,11,12,12,13,13,14,14,17,17,18,18,21,21,22,22,23,23,24,24,25,25,26,26,27,27,28,28,29,29,30,30,39,39,40,40,41,41,42,42,43,43,44,44,45,45,46,46,50,50,56,56,57,57,58,58,60,60,61,61,62,62,65,65,67,67,68,68],"right_children":[2,4,6,8,10,12,14,16,18,20,22,24,26,28,30,-1,-1,32,34,-1,-1,36,38,40,42,44,46,48,50,52,54,-1,-1,-1,-1,-1,-1,-1,-1,56,58,60,62,64,66,68,70,-1,-1,-1,72,-1,-1,-1,-1,-1,74,76,78,-1,80,82,84,-1,-1,86,-1,88,90,-1,-1,-1,-1,-1,-1,-1,-1,-1,-1,-1,-1,-1,-1,-1,-1,-1,-1,-1,-1,-1,-1],"split_conditions":[6.6695E1,6.596E1,6.7905E1,6.543E1,6.624275E1,6.7312416E1,6.842482E1,6.5135E1,6.572E1,6.6095E1,6.65E1,6.708E1,6.751902E1,6.816E1,6.8688446E1,-3.464734E-2,-3.0647393E-2,6.5613144E1,6.5835E1,-1.8892994E-2,-1.654254E-2,6.638735E1,6.662E1,6.692E1,6.7195E1,6.741054E1,6.771E1,6.8015E1,6.8275E1,6.8551384E1,6.886E1,-2.6360631E-2,-2.4838483E-2,-2.326944E-2,-2.1002198E-2,-1.3682077E-2,-1.2263623E-2,-1.0518877E-2,-8.759892E-3,6.682E1,6.702E1,6.713E1,6.725469E1,6.736065E1,6.7469284E1,6.7595E1,6.785E1,1.1678396E-2,1.4184889E-2,1.5972145E-2,6.834E1,2.0638015E-2,2.2440793E-2,2.5008436E-2,2.7399506E-2,-7.0086257E-3,6.687E1,6.695E1,6.705E1,-1.7217677E-3,6.7165E1,6.7221085E1,6.72811E1,1.9692362E-3,2.8539002E-3,6.744167E1,4.548362E-3,6.755215E1,6.764E1,8.477962E-3,1.0363304E-2,1.7602459E-2,1.8769229E-2,-5.8793644E-3,-5.0791823E-3,-4.330477E-3,-3.7217753E-3,-2.8873528E-3,-2.373753E-3,-9.7047735E-4,-5.027577E-4,-4.390674E-5,4.50245E-4,8.901029E-4,1.3799026E-3,3.5014504E-3,3.9162715E-3,5.1920554E-3,5.8184555E-3,6.4700264E-3,7.20378E-3],"split_indices":[2,2,1,2,7,18,18,2,1,2,3,3,18,1,19,0,0,18,3,0,0,18,1,3,3,18,3,2,18,18,3,0,0,0,0,0,0,0,0,3,1,2,18,18,18,3,10,0,0,0,2,0,0,0,0,0,3,2,3,0,3,18,18,0,0,18,0,18,3,0,0,0,0,0,0,0,0,0,0,0,0,0,0,0,0,0,0,0,0,0,0],"split_type":[0,0,0,0,0,0,0,0,0,0,0,0,0,0,0,0,0,0,0,0,0,0,0,0,0,0,0,0,0,0,0,0,0,0,0,0,0,0,0,0,0,0,0,0,0,0,0,0,0,0,0,0,0,0,0,0,0,0,0,0,0,0,0,0,0,0,0,0,0,0,0,0,0,0,0,0,0,0,0,0,0,0,0,0,0,0,0,0,0,0,0],"sum_hessian":[2.9906E4,6.2E3,2.3706E4,4.167E3,2.033E3,1.8413E4,5.293E3,1.028E3,3.139E3,8.41E2,1.192E3,8.748E3,9.665E3,2.495E3,2.798E3,5.65E2,4.63E2,1.775E3,1.364E3,4.98E2,3.43E2,4.77E2,7.15E2,3.642E3,5.106E3,4.571E3,5.094E3,6.92E2,1.803E3,1.756E3,1.042E3,9.53E2,8.22E2,9.36E2,4.28E2,2.38E2,2.39E2,4.76E2,2.39E2,1.389E3,2.253E3,1.596E3,3.51E3,1.868E3,2.703E3,4.636E3,4.58E2,4.69E2,2.23E2,6.16E2,1.187E3,6.97E2,1.059E3,5.55E2,4.87E2,4.21E2,9.68E2,1.232E3,1.021E3,7.93E2,8.03E2,1.76E3,1.75E3,1.04E3,8.28E2,1.411E3,1.292E3,2.296E3,2.34E3,1.05E2,3.53E2,6.86E2,5.01E2,4.97E2,4.71E2,5.38E2,6.94E2,5.05E2,5.16E2,3.23E2,4.8E2,7.19E2,1.041E3,8.18E2,9.32E2,7.12E2,6.99E2,9.47E2,1.349E3,1.263E3,1.077E3],"tree_param":{"num_deleted":"0","num_feature":"25","num_nodes":"91","size_leaf_vector":"1"}},{"base_weights":[-3.5448968E-5,-1.0983076E0,2.8730693E-1,-1.3144865E0,-7.147072E-1,8.706432E-2,9.6816015E-1,-1.6124928E0,-1.2053285E0,-9.007645E-1,-5.482021E-1,-8.912325E-2,2.4286033E-1,7.737445E-1,1.1450338E0,-3.3952165E-2,-3.0023685E-2,-2.5478372E-2,-1.1408268E0,-1.9510316E-2,-8.426871E-1,-6.210659E-1,-4.7392473E-1,-2.1437596E-1,3.2999567E-3,1.6194151E-1,3.1420708E-1,5.841348E-1,8.467335E-1,1.0632064E0,1.2789685E0,-2.3337895E-2,-2.1586843E-2,-1.7567096E-2,-1.5733846E-2,-1.3187062E-2,-1.1382075E-2,-1.0025915E-2,-8.555767E-3,-2.9406527E-1,-1.6501525E-1,-5.8677066E-2,3.246679E-2,1.09072685E-1,1.9655024E-1,2.9998732E-1,4.4753957E-1,1.1051043E-2,1.2845408E-2,1.5288511E-2,8.8292044E-1,2.0185525E-2,2.1938039E-2,2.4228277E-2,2.6677141E-2,-3.4476694E-1,-2.6915392E-1,-1.9510478E-1,-1.2857233E-1,-1.7090475E-3,-3.5021603E-2,1.0562925E-2,5.3047366E-2,1.8701958E-3,2.6731663E-3,1.7588614E-1,2.178599E-1,2.711443E-1,3.3078283E-1,7.940358E-3,1.0008132E-2,1.7089302E-2,1.8279482E-2,-7.28908E-3,-6.3980077E-3,-5.7707094E-3,-4.9592284E-3,-4.2453054E-3,-3.64487E-3,-2.823553E-3,-2.3292154E-3,-9.820404E-4,-4.7934445E-4,-4.0301828E-5,4.1167007E-4,8.179346E-4,1.2843248E-3,3.237E-3,3.6863068E-3,4.1278386E-3,4.552391E-3,5.052056E-3,5.7031284E-3,6.2859207E-3,6.935557E-3],"categories":[],"categories_nodes":[],"categories_segments":[],"categories_sizes":[],"default_left":[0,0,0,0,0,0,0,0,0,0,0,0,0,0,0,0,0,0,0,0,0,0,0,0,0,0,0,0,0,0,0,0,0,0,0,0,0,0,0,0,0,0,0,0,0,0,0,0,0,0,0,0,0,0,0,0,0,0,0,0,0,0,0,0,0,0,0,0,0,0,0,0,0,0,0,0,0,0,0,0,0,0,0,0,0,0,0,0,0,0,0,0,0,0,0],"id":12,"left_children":[1,3,5,7,9,11,13,15,17,19,21,23,25,27,29,-1,-1,-1,31,-1,33,35,37,39,41,43,45,47,49,51,53,-1,-1,-1,-1,-1,-1,-1,-1,55,57,59,61,63,65,67,69,-1,-1,-1,71,-1,-1,-1,-1,73,75,77,79,-1,81,83,85,-1,-1,87,89,91,93,-1,-1,-1,-1,-1,-1,-1,-1,-1,-1,-1,-1,-1,-1,-1,-1,-1,-1,-1,-1,-1,-1,-1,-1,-1,-1],"loss_changes":[9.498963E3,5.1668604E2,3.2526162E3,1.278833E2,6.927197E1,5.061048E2,1.8556055E2,7.5603027E0,1.1487305E1,3.7885132E0,6.15152E0,1.0017005E2,5.6440796E1,3.529419E1,2.9732178E1,0E0,0E0,0E0,1.1719971E0,0E0,5.17334E-1,8.1448364E-1,5.3564453E-1,1.4403229E1,9.004121E0,8.371498E0,9.722839E0,9.707489E-1,4.879883E0,2.104126E0,2.3553467E0,0E0,0E0,0E0,0E0,0E0,0E0,0E0,0E0,1.6805267E0,2.465187E0,1.0066185E0,1.526279E0,6.827278E-1,1.1818771E0,4.0858765E0,1.1341248E0,0E0,0E0,0E0,3.5809326E-1,0E0,0E0,0E0,0E0,1.0810852E-1,3.1702423E-1,2.3542786E-1,1.408081E-1,0E0,1.3081467E-1,2.0699757E-1,2.343216E-1,0E0,0E0,1.3722992E-1,1.0523987E-1,5.600891E-1,4.8937988E-1,0E0,0E0,0E0,0E0,0E0,0E0,0E0,0E0,0E0,0E0,0E0,0E0,0E0,0E0,0E0,0E0,0E0,0E0,0E0,0E0,0E0,0E0,0E0,0E0,0E0,0E0],"parents":[2147483647,0,0,1,1,2,2,3,3,4,4,5,5,6,6,7,7,8,8,9,9,10,10,11,11,12,12,13,13,14,14,18,18,20,20,21,21,22,22,23,23,24,24,25,25,26,26,27,27,28,28,29,29,30,30,39,39,40,40,41,41,42,42,43,43,44,44,45,45,46,46,50,50,55,55,56,56,57,57,58,58,60,60,61,61,62,62,65,65,66,66,67,67,68,68],"right_children":[2,4,6,8,10,12,14,16,18,20,22,24,26,28,30,-1,-1,-1,32,-1,34,36,38,40,42,44,46,48,50,52,54,-1,-1,-1,-1,-1,-1,-1,-1,56,58,60,62,64,66,68,70,-1,-1,-1,72,-1,-1,-1,-1,74,76,78,80,-1,82,84,86,-1,-1,88,90,92,94,-1,-1,-1,-1,-1,-1,-1,-1,-1,-1,-1,-1,-1,-1,-1,-1,-1,-1,-1,-1,-1,-1,-1,-1,-1,-1],"split_conditions":[6.6705E1,6.5915E1,6.78759E1,6.544E1,6.6265E1,6.7306915E1,6.842482E1,6.5145E1,6.566216E1,6.6035E1,6.653E1,6.708E1,6.7514915E1,6.811485E1,6.869E1,-3.3952165E-2,-3.0023685E-2,-2.5478372E-2,6.577598E1,-1.9510316E-2,6.6155E1,6.6445E1,6.660712E1,6.692E1,6.7195E1,6.7405E1,6.7685E1,6.796213E1,6.825243E1,6.856E1,6.882264E1,-2.3337895E-2,-2.1586843E-2,-1.7567096E-2,-1.5733846E-2,-1.3187062E-2,-1.1382075E-2,-1.0025915E-2,-8.555767E-3,6.682E1,6.702E1,6.7135E1,6.725124E1,6.736E1,6.7465E1,6.7595E1,6.7835E1,1.1051043E-2,1.2845408E-2,1.5288511E-2,6.8339066E1,2.0185525E-2,2.1938039E-2,2.4228277E-2,2.6677141E-2,6.679E1,6.687E1,6.696E1,6.705E1,-1.7090475E-3,6.7165E1,6.7221085E1,6.728E1,1.8701958E-3,2.6731663E-3,6.7429214E1,6.749E1,6.755215E1,6.763141E1,7.940358E-3,1.0008132E-2,1.7089302E-2,1.8279482E-2,-7.28908E-3,-6.3980077E-3,-5.7707094E-3,-4.9592284E-3,-4.2453054E-3,-3.64487E-3,-2.823553E-3,-2.3292154E-3,-9.820404E-4,-4.7934445E-4,-4.0301828E-5,4.1167007E-4,8.179346E-4,1.2843248E-3,3.237E-3,3.6863068E-3,4.1278386E-3,4.552391E-3,5.052056E-3,5.7031284E-3,6.2859207E-3,6.935557E-3],"split_indices":[3,1,18,16,3,18,18,3,18,3,3,3,18,19,3,0,0,0,18,0,1,1,19,3,3,3,3,18,18,1,19,0,0,0,0,0,0,0,0,3,1,3,18,3,3,3,1,0,0,0,18,0,0,0,0,1,3,3,3,0,3,18,3,0,0,18,3,18,18,0,0,0,0,0,0,0,0,0,0,0,0,0,0,0,0,0,0,0,0,0,0,0,0,0,0],"split_type":[0,0,0,0,0,0,0,0,0,0,0,0,0,0,0,0,0,0,0,0,0,0,0,0,0,0,0,0,0,0,0,0,0,0,0,0,0,0,0,0,0,0,0,0,0,0,0,0,0,0,0,0,0,0,0,0,0,0,0,0,0,0,0,0,0,0,0,0,0,0,0,0,0,0,0,0,0,0,0,0,0,0,0,0,0,0,0,0,0,0,0,0,0,0,0],"sum_hessian":[3.0098E4,6.241E3,2.3857E4,3.99E3,2.251E3,1.8436E4,5.421E3,1.066E3,2.924E3,1.061E3,1.19E3,8.652E3,9.784E3,2.585E3,2.836E3,5.96E2,4.7E2,1.408E3,1.516E3,4.57E2,6.04E2,5.97E2,5.93E2,3.673E3,4.979E3,4.586E3,5.198E3,7.21E2,1.864E3,1.766E3,1.07E3,1.052E3,4.64E2,3.6E2,2.44E2,3.37E2,2.6E2,3.66E2,2.27E2,1.403E3,2.27E3,1.593E3,3.386E3,1.816E3,2.77E3,4.7E3,4.98E2,4.74E2,2.47E2,5.76E2,1.288E3,6.91E2,1.075E3,4.9E2,5.8E2,4.58E2,9.45E2,1.241E3,1.029E3,7.46E2,8.47E2,1.641E3,1.745E3,1.115E3,7.01E2,1.411E3,1.359E3,2.432E3,2.268E3,2.59E2,2.39E2,6.87E2,6.01E2,2.48E2,2.1E2,4.87E2,4.58E2,5.25E2,7.16E2,4.99E2,5.3E2,3.71E2,4.76E2,7.28E2,9.13E2,8.38E2,9.07E2,5.37E2,8.74E2,6.35E2,7.24E2,1.055E3,1.377E3,1.127E3,1.141E3],"tree_param":{"num_deleted":"0","num_feature":"25","num_nodes":"95","size_leaf_vector":"1"}},{"base_weights":[-9.91205E-4,-1.0749214E0,2.8059113E-1,-1.270231E0,-6.7462236E-1,9.09191E-2,9.68794E-1,-1.577164E0,-1.1681987E0,-8.588177E-1,-5.3566307E-1,-7.665714E-2,2.5503638E-1,7.961859E-1,1.1394233E0,-3.318608E-2,-2.9313292E-2,-1.2329997E0,-1.0849421E0,-1.8129036E-2,-1.5804207E-2,-6.1048615E-1,-4.6501833E-1,-2.0393401E-1,1.5628172E-2,1.8268022E-1,3.3085978E-1,6.534889E-1,8.6430913E-1,1.0641947E0,1.2676171E0,-2.5248012E-2,-2.3755714E-2,-2.2364536E-2,-2.0200502E-2,-1.2850348E-2,-1.1146696E-2,-9.835368E-3,-8.382992E-3,-2.8160766E-1,-1.5400389E-1,-3.712586E-2,4.6839856E-2,1.3766198E-1,2.1782275E-1,3.0715764E-1,4.890077E-1,1.1457008E-2,1.4260288E-2,1.6539982E-2,1.8372558E-2,2.065645E-2,2.2300614E-2,2.4525113E-2,2.6681893E-2,-3.306764E-1,-2.546154E-1,-1.8804076E-1,-1.2177023E-1,-6.5795064E-2,-1.2859468E-2,2.7232083E-2,6.860918E-2,1.1053487E-1,1.5921457E-1,1.9924024E-1,4.77227E-3,2.8526762E-1,3.385049E-1,8.195487E-3,1.0108797E-2,-7.152658E-3,-6.1706402E-3,-5.4859114E-3,-4.694787E-3,-3.958954E-3,-3.4182481E-3,-2.6912647E-3,-2.129417E-3,-1.6265705E-3,-1.0291765E-3,-4.8330377E-4,-7.450652E-5,3.4164038E-4,7.5259415E-4,1.1706123E-3,1.5844963E-3,2.0224748E-3,2.4657536E-3,2.9962095E-3,3.418148E-3,3.744115E-3,4.1757897E-3,5.413515E-3,5.9433067E-3,6.5891384E-3,7.201725E-3],"categories":[],"categories_nodes":[],"categories_segments":[],"categories_sizes":[],"default_left":[0,0,0,0,0,0,0,0,0,0,0,0,0,0,0,0,0,0,0,0,0,0,0,0,0,0,0,0,0,0,0,0,0,0,0,0,0,0,0,0,0,0,0,0,0,0,0,0,0,0,0,0,0,0,0,0,0,0,0,0,0,0,0,0,0,0,0,0,0,0,0,0,0,0,0,0,0,0,0,0,0,0,0,0,0,0,0,0,0,0,0,0,0,0,0,0,0],"id":13,"left_children":[1,3,5,7,9,11,13,15,17,19,21,23,25,27,29,-1,-1,31,33,-1,-1,35,37,39,41,43,45,47,49,51,53,-1,-1,-1,-1,-1,-1,-1,-1,55,57,59,61,63,65,67,69,-1,-1,-1,-1,-1,-1,-1,-1,71,73,75,77,79,81,83,85,87,89,91,-1,93,95,-1,-1,-1,-1,-1,-1,-1,-1,-1,-1,-1,-1,-1,-1,-1,-1,-1,-1,-1,-1,-1,-1,-1,-1,-1,-1,-1,-1],"loss_changes":[9.082274E3,4.8692188E2,3.105941E3,1.2943848E2,5.19599E1,5.130722E2,1.5050537E2,7.1203613E0,1.5657227E1,2.156311E0,5.900543E0,1.0842854E2,5.164789E1,2.4311157E1,2.3561035E1,0E0,0E0,8.4521484E-1,2.3293457E0,0E0,0E0,6.0383606E-1,5.3744507E-1,1.5004257E1,8.8140335E0,7.6034393E0,1.7096344E1,3.5803833E0,2.7443848E0,1.4543457E0,9.761963E-1,0E0,0E0,0E0,0E0,0E0,0E0,0E0,0E0,1.9250336E0,2.5707245E0,1.3835928E0,1.4336214E0,1.2207069E0,9.9868774E-1,2.65094E0,5.714569E-1,0E0,0E0,0E0,0E0,0E0,0E0,0E0,0E0,2.090149E-1,3.2012558E-1,1.6097641E-1,2.2387123E-1,1.9890928E-1,1.11336246E-1,1.8626249E-1,1.6579866E-1,1.0047054E-1,1.0393143E-1,1.2594223E-1,0E0,3.299713E-1,2.0179749E-1,0E0,0E0,0E0,0E0,0E0,0E0,0E0,0E0,0E0,0E0,0E0,0E0,0E0,0E0,0E0,0E0,0E0,0E0,0E0,0E0,0E0,0E0,0E0,0E0,0E0,0E0,0E0,0E0],"parents":[2147483647,0,0,1,1,2,2,3,3,4,4,5,5,6,6,7,7,8,8,9,9,10,10,11,11,12,12,13,13,14,14,17,17,18,18,21,21,22,22,23,23,24,24,25,25,26,26,27,27,28,28,29,29,30,30,39,39,40,40,41,41,42,42,43,43,44,44,45,45,46,46,55,55,56,56,57,57,58,58,59,59,60,60,61,61,62,62,63,63,64,64,65,65,67,67,68,68],"right_children":[2,4,6,8,10,12,14,16,18,20,22,24,26,28,30,-1,-1,32,34,-1,-1,36,38,40,42,44,46,48,50,52,54,-1,-1,-1,-1,-1,-1,-1,-1,56,58,60,62,64,66,68,70,-1,-1,-1,-1,-1,-1,-1,-1,72,74,76,78,80,82,84,86,88,90,92,-1,94,96,-1,-1,-1,-1,-1,-1,-1,-1,-1,-1,-1,-1,-1,-1,-1,-1,-1,-1,-1,-1,-1,-1,-1,-1,-1,-1,-1,-1],"split_conditions":[6.6705E1,6.596E1,6.7905E1,6.546E1,6.624E1,6.7325E1,6.849E1,6.5135E1,6.570841E1,6.610873E1,6.6515E1,6.7090706E1,6.754416E1,6.820331E1,6.872625E1,-3.318608E-2,-2.9313292E-2,6.564E1,6.5845E1,-1.8129036E-2,-1.5804207E-2,6.644E1,6.660913E1,6.694E1,6.721714E1,6.744167E1,6.770636E1,6.802252E1,6.834E1,6.86E1,6.888501E1,-2.5248012E-2,-2.3755714E-2,-2.2364536E-2,-2.0200502E-2,-1.2850348E-2,-1.1146696E-2,-9.835368E-3,-8.382992E-3,6.684E1,6.7E1,6.7165E1,6.7275E1,6.738695E1,6.75E1,6.7618706E1,6.785E1,1.1457008E-2,1.4260288E-2,1.6539982E-2,1.8372558E-2,2.065645E-2,2.2300614E-2,2.4525113E-2,2.6681893E-2,6.678E1,6.688E1,6.6965E1,6.706E1,6.7115E1,6.7205E1,6.725E1,6.730017E1,6.736E1,6.7415E1,6.747E1,4.77227E-3,6.758099E1,6.7665E1,8.195487E-3,1.0108797E-2,-7.152658E-3,-6.1706402E-3,-5.4859114E-3,-4.694787E-3,-3.958954E-3,-3.4182481E-3,-2.6912647E-3,-2.129417E-3,-1.6265705E-3,-1.0291765E-3,-4.8330377E-4,-7.450652E-5,3.4164038E-4,7.5259415E-4,1.1706123E-3,1.5844963E-3,2.0224748E-3,2.4657536E-3,2.9962095E-3,3.418148E-3,3.744115E-3,4.1757897E-3,5.413515E-3,5.9433067E-3,6.5891384E-3,7.201725E-3],"split_indices":[3,2,2,1,9,2,3,9,18,18,2,18,18,18,18,0,0,1,1,0,0,3,18,1,18,18,20,20,2,2,18,0,0,0,0,0,0,0,0,1,2,3,3,18,3,18,10,0,0,0,0,0,0,0,0,3,3,2,3,2,1,3,18,3,2,3,0,18,3,0,0,0,0,0,0,0,0,0,0,0,0,0,0,0,0,0,0,0,0,0,0,0,0,0,0,0,0],"split_type":[0,0,0,0,0,0,0,0,0,0,0,0,0,0,0,0,0,0,0,0,0,0,0,0,0,0,0,0,0,0,0,0,0,0,0,0,0,0,0,0,0,0,0,0,0,0,0,0,0,0,0,0,0,0,0,0,0,0,0,0,0,0,0,0,0,0,0,0,0,0,0,0,0,0,0,0,0,0,0,0,0,0,0,0,0,0,0,0,0,0,0,0,0,0,0,0,0],"sum_hessian":[3.0032E4,6.238E3,2.3794E4,4.191E3,2.047E3,1.8654E4,5.14E3,1.042E3,3.149E3,8.78E2,1.169E3,9.23E3,9.424E3,2.558E3,2.582E3,5.92E2,4.5E2,1.763E3,1.386E3,5.11E2,3.67E2,5.64E2,6.05E2,3.879E3,5.351E3,4.824E3,4.6E3,8.3E2,1.728E3,1.633E3,9.49E2,1.052E3,7.11E2,9.5E2,4.36E2,3.45E2,2.19E2,3.76E2,2.29E2,1.516E3,2.363E3,1.989E3,3.362E3,2.117E3,2.707E3,4.003E3,5.97E2,3.57E2,4.73E2,1.034E3,6.94E2,1.023E3,6.1E2,5.97E2,3.52E2,5.34E2,9.82E2,1.147E3,1.216E3,9.11E2,1.078E3,1.77E3,1.592E3,9.4E2,1.177E3,1.435E3,1.272E3,2.363E3,1.64E3,1.07E2,4.9E2,2.34E2,3E2,4.87E2,4.95E2,7.2E2,4.27E2,6.58E2,5.58E2,4.35E2,4.76E2,4.81E2,5.97E2,8.97E2,8.73E2,8.2E2,7.72E2,5.46E2,3.94E2,6.6E2,5.17E2,6.44E2,7.91E2,1.072E3,1.291E3,1.167E3,4.73E2],"tree_param":{"num_deleted":"0","num_feature":"25","num_nodes":"97","size_leaf_vector":"1"}},{"base_weights":[-1.0089776E-3,-1.0522233E0,2.7552426E-1,-1.2495493E0,-6.7440486E-1,8.9509435E-2,9.5058745E-1,-1.5457975E0,-1.1486593E0,-8.539366E-1,-5.267526E-1,-7.900964E-2,2.4579842E-1,7.8217477E-1,1.1145641E0,-3.256806E-2,-2.8840423E-2,-1.2074808E0,-1.0695386E0,-1.8003952E-2,-1.5523013E-2,-6.1500686E-1,-4.688204E-1,-2.0081559E-1,1.1504271E-2,1.7403889E-1,3.2232523E-1,6.386165E-1,8.471005E-1,1.0487392E0,1.2548951E0,-2.5047084E-2,-2.3576926E-2,-2.204954E-2,-2.0199697E-2,-1.2890038E-2,-1.1587848E-2,-1.014504E-2,-8.5552335E-3,-2.753853E-1,-1.5169266E-1,-3.827699E-2,4.2420402E-2,1.2850216E-1,2.1026197E-1,3.000156E-1,4.7928032E-1,1.1217183E-2,1.3937092E-2,1.6079651E-2,1.7846622E-2,2.0324826E-2,2.2219157E-2,2.4262719E-2,2.61453E-2,-3.20452E-1,-2.4826446E-1,-1.8276711E-1,-1.1877248E-1,-6.992907E-2,-1.6063122E-2,2.576373E-2,6.4191885E-2,2.0424174E-3,1.5179318E-1,3.7854018E-3,4.575295E-3,2.7863726E-1,3.3138725E-1,8.120693E-3,9.913599E-3,-7.004385E-3,-6.0068113E-3,-5.263005E-3,-4.472612E-3,-3.876995E-3,-3.3283283E-3,-2.598309E-3,-2.1021483E-3,-1.617842E-3,-1.0875033E-3,-5.8323453E-4,-1.1861235E-4,3.2650895E-4,7.307791E-4,1.1162177E-3,1.4734098E-3,2.7181308E-3,3.198407E-3,5.2503636E-3,5.8009485E-3,6.4530456E-3,7.0512476E-3],"categories":[],"categories_nodes":[],"categories_segments":[],"categories_sizes":[],"default_left":[0,0,0,0,0,0,0,0,0,0,0,0,0,0,0,0,0,0,0,0,0,0,0,0,0,0,0,0,0,0,0,0,0,0,0,0,0,0,0,0,0,0,0,0,0,0,0,0,0,0,0,0,0,0,0,0,0,0,0,0,0,0,0,0,0,0,0,0,0,0,0,0,0,0,0,0,0,0,0,0,0,0,0,0,0,0,0,0,0,0,0,0,0],"id":14,"left_children":[1,3,5,7,9,11,13,15,17,19,21,23,25,27,29,-1,-1,31,33,-1,-1,35,37,39,41,43,45,47,49,51,53,-1,-1,-1,-1,-1,-1,-1,-1,55,57,59,61,63,65,67,69,-1,-1,-1,-1,-1,-1,-1,-1,71,73,75,77,79,81,83,85,-1,87,-1,-1,89,91,-1,-1,-1,-1,-1,-1,-1,-1,-1,-1,-1,-1,-1,-1,-1,-1,-1,-1,-1,-1,-1,-1,-1,-1],"loss_changes":[8.74994E3,4.6653223E2,2.9924153E3,1.2127539E2,5.6622437E1,4.9211255E2,1.4129395E2,6.5927734E0,1.3019775E1,2.791809E0,5.7651978E0,9.912928E1,5.3178772E1,2.3161255E1,2.2756592E1,0E0,0E0,7.7978516E-1,1.4758301E0,0E0,0E0,1.1608887E-1,9.17572E-1,1.3998825E1,7.9415517E0,8.228638E0,1.6278778E1,3.2138062E0,2.6916504E0,2.4699707E0,2.2253418E-1,0E0,0E0,0E0,0E0,0E0,0E0,0E0,0E0,1.7794724E0,2.3444366E0,1.3889356E0,1.1526308E0,1.3485718E0,1.0388031E0,2.6634216E0,4.9783325E-1,0E0,0E0,0E0,0E0,0E0,0E0,0E0,0E0,2.3485565E-1,2.9097748E-1,1.8301773E-1,1.5779972E-1,1.345737E-1,1.5418237E-1,1.8297136E-1,1.05436325E-1,0E0,1.3023186E-1,0E0,0E0,3.7446594E-1,1.9329834E-1,0E0,0E0,0E0,0E0,0E0,0E0,0E0,0E0,0E0,0E0,0E0,0E0,0E0,0E0,0E0,0E0,0E0,0E0,0E0,0E0,0E0,0E0,0E0,0E0],"parents":[2147483647,0,0,1,1,2,2,3,3,4,4,5,5,6,6,7,7,8,8,9,9,10,10,11,11,12,12,13,13,14,14,17,17,18,18,21,21,22,22,23,23,24,24,25,25,26,26,27,27,28,28,29,29,30,30,39,39,40,40,41,41,42,42,43,43,44,44,45,45,46,46,55,55,56,56,57,57,58,58,59,59,60,60,61,61,62,62,64,64,67,67,68,68],"right_children":[2,4,6,8,10,12,14,16,18,20,22,24,26,28,30,-1,-1,32,34,-1,-1,36,38,40,42,44,46,48,50,52,54,-1,-1,-1,-1,-1,-1,-1,-1,56,58,60,62,64,66,68,70,-1,-1,-1,-1,-1,-1,-1,-1,72,74,76,78,80,82,84,86,-1,88,-1,-1,90,92,-1,-1,-1,-1,-1,-1,-1,-1,-1,-1,-1,-1,-1,-1,-1,-1,-1,-1,-1,-1,-1,-1,-1,-1],"split_conditions":[6.6695E1,6.5945E1,6.7905E1,6.543E1,6.629044E1,6.7325E1,6.849E1,6.5135E1,6.572E1,6.611E1,6.648E1,6.708E1,6.755E1,6.8215E1,6.876003E1,-3.256806E-2,-2.8840423E-2,6.558E1,6.580356E1,-1.8003952E-2,-1.5523013E-2,6.638735E1,6.6585E1,6.694E1,6.721E1,6.743859E1,6.771E1,6.8025E1,6.8325E1,6.863E1,6.888501E1,-2.5047084E-2,-2.3576926E-2,-2.204954E-2,-2.0199697E-2,-1.2890038E-2,-1.1587848E-2,-1.014504E-2,-8.5552335E-3,6.683338E1,6.701346E1,6.7145E1,6.7275E1,6.73795E1,6.749E1,6.7618706E1,6.7815E1,1.1217183E-2,1.3937092E-2,1.6079651E-2,1.7846622E-2,2.0324826E-2,2.2219157E-2,2.4262719E-2,2.61453E-2,6.678E1,6.6895E1,6.6975E1,6.706E1,6.7115E1,6.718798E1,6.725E1,6.73E1,2.0424174E-3,6.7405E1,3.7854018E-3,4.575295E-3,6.757766E1,6.7665E1,8.120693E-3,9.913599E-3,-7.004385E-3,-6.0068113E-3,-5.263005E-3,-4.472612E-3,-3.876995E-3,-3.3283283E-3,-2.598309E-3,-2.1021483E-3,-1.617842E-3,-1.0875033E-3,-5.8323453E-4,-1.1861235E-4,3.2650895E-4,7.307791E-4,1.1162177E-3,1.4734098E-3,2.7181308E-3,3.198407E-3,5.2503636E-3,5.8009485E-3,6.4530456E-3,7.0512476E-3],"split_indices":[2,3,2,2,18,3,3,2,1,3,2,2,1,1,18,0,0,2,18,0,0,18,3,1,2,18,16,16,2,3,18,0,0,0,0,0,0,0,0,18,18,2,3,18,3,18,2,0,0,0,0,0,0,0,0,3,3,3,3,2,18,3,3,0,3,0,0,18,3,0,0,0,0,0,0,0,0,0,0,0,0,0,0,0,0,0,0,0,0,0,0,0,0],"split_type":[0,0,0,0,0,0,0,0,0,0,0,0,0,0,0,0,0,0,0,0,0,0,0,0,0,0,0,0,0,0,0,0,0,0,0,0,0,0,0,0,0,0,0,0,0,0,0,0,0,0,0,0,0,0,0,0,0,0,0,0,0,0,0,0,0,0,0,0,0,0,0,0,0,0,0,0,0,0,0,0,0,0,0,0,0,0,0,0,0,0,0,0,0],"sum_hessian":[3.0098E4,6.268E3,2.383E4,4.116E3,2.152E3,1.8683E4,5.147E3,1.042E3,3.074E3,9.69E2,1.183E3,8.99E3,9.693E3,2.542E3,2.605E3,5.72E2,4.7E2,1.755E3,1.319E3,6.01E2,3.68E2,4.65E2,7.18E2,3.832E3,5.158E3,5.004E3,4.689E3,7.95E2,1.747E3,1.779E3,8.26E2,6.67E2,1.088E3,8.38E2,4.81E2,2.45E2,2.2E2,3.65E2,3.53E2,1.52E3,2.312E3,1.976E3,3.182E3,2.219E3,2.785E3,4.108E3,5.81E2,3.45E2,4.5E2,9.04E2,8.43E2,1.18E3,5.99E2,4.73E2,3.53E2,5.67E2,9.53E2,1.187E3,1.125E3,8.14E2,1.162E3,1.804E3,1.378E3,1.043E3,1.176E3,1.31E3,1.475E3,2.449E3,1.659E3,1.11E2,4.7E2,2.22E2,3.45E2,5.88E2,3.65E2,7.01E2,4.86E2,6.15E2,5.1E2,4.75E2,3.39E2,5.06E2,6.56E2,9.63E2,8.41E2,7.35E2,6.43E2,4.04E2,7.72E2,1.025E3,1.424E3,1.186E3,4.73E2],"tree_param":{"num_deleted":"0","num_feature":"25","num_nodes":"93","size_leaf_vector":"1"}},{"base_weights":[1.8861509E-3,-1.0477916E0,2.6790237E-1,-1.2349719E0,-6.9010913E-1,7.845178E-2,9.091614E-1,-1.5163866E0,-1.1338896E0,-8.486557E-1,-5.279921E-1,-8.6330526E-2,2.2865838E-1,7.262367E-1,1.0793078E0,-3.189642E-2,-2.818305E-2,-2.3953855E-2,-1.0736988E0,-1.8123098E-2,-7.814074E-1,-6.010859E-1,-4.7311383E-1,-2.1129553E-1,-1.0295733E-3,1.5032087E-1,2.9428247E-1,5.4702204E-1,7.9415166E-1,1.0025859E0,1.2050436E0,-2.1987958E-2,-2.0342182E-2,-1.6364677E-2,-1.4800026E-2,-1.2675966E-2,-1.1372073E-2,-1.0196303E-2,-8.926019E-3,-2.883922E-1,-1.6336739E-1,-5.9911788E-2,3.0467467E-2,1.0255592E-1,1.8314634E-1,2.6665562E-1,3.5501367E-1,1.0369306E-2,1.2060921E-2,1.4361472E-2,8.296447E-1,1.8987585E-2,2.0666527E-2,2.2768583E-2,2.5058528E-2,-3.4422317E-1,-2.6115933E-1,-1.890006E-1,-1.2786709E-1,-8.6242616E-2,-3.534906E-2,1.039428E-2,4.9990892E-2,1.7380673E-3,2.490331E-3,3.2687937E-3,4.0281783E-3,2.417858E-1,2.8552285E-1,6.599927E-3,4.4771537E-1,1.6052295E-2,1.7144084E-2,-7.4477307E-3,-6.349306E-3,-5.5752457E-3,-4.8457203E-3,-4.100361E-3,-3.517344E-3,-2.9262733E-3,-2.3949826E-3,-1.9188462E-3,-1.474704E-3,-9.629805E-4,-4.621461E-4,-4.5404173E-5,3.8633327E-4,7.8973843E-4,1.2332726E-3,4.629647E-3,5.0548273E-3,5.4565584E-3,5.919465E-3,7.3945513E-3,9.248165E-3],"categories":[],"categories_nodes":[],"categories_segments":[],"categories_sizes":[],"default_left":[0,0,0,0,0,0,0,0,0,0,0,0,0,0,0,0,0,0,0,0,0,0,0,0,0,0,0,0,0,0,0,0,0,0,0,0,0,0,0,0,0,0,0,0,0,0,0,0,0,0,0,0,0,0,0,0,0,0,0,0,0,0,0,0,0,0,0,0,0,0,0,0,0,0,0,0,0,0,0,0,0,0,0,0,0,0,0,0,0,0,0,0,0,0,0],"id":15,"left_children":[1,3,5,7,9,11,13,15,17,19,21,23,25,27,29,-1,-1,-1,31,-1,33,35,37,39,41,43,45,47,49,51,53,-1,-1,-1,-1,-1,-1,-1,-1,55,57,59,61,63,65,67,69,-1,-1,-1,71,-1,-1,-1,-1,73,75,77,79,81,83,85,87,-1,-1,-1,-1,89,91,-1,93,-1,-1,-1,-1,-1,-1,-1,-1,-1,-1,-1,-1,-1,-1,-1,-1,-1,-1,-1,-1,-1,-1,-1,-1],"loss_changes":[8.400954E3,4.0641162E2,2.915979E3,1.118374E2,5.3322754E1,4.5866296E2,1.6958887E2,6.60083E0,1.0008789E1,3.375183E0,3.8753052E0,9.419896E1,4.9790985E1,3.1710083E1,2.6130615E1,0E0,0E0,0E0,1.0966797E0,0E0,1.4776611E-1,1.0820007E-1,3.5995483E-1,1.3199829E1,9.744121E0,6.9129333E0,8.754089E0,8.536377E-1,4.569824E0,1.9073486E0,1.9833984E0,0E0,0E0,0E0,0E0,0E0,0E0,0E0,0E0,1.9976654E0,1.9896355E0,1.1811633E0,1.340945E0,6.0894203E-1,9.096527E-1,1.6337891E0,3.669571E0,0E0,0E0,0E0,2.7886963E-1,0E0,0E0,0E0,0E0,2.1863937E-1,2.4043274E-1,2.3384094E-1,1.2189579E-1,1.00049496E-1,1.4759004E-1,1.9089651E-1,2.1029377E-1,0E0,0E0,0E0,0E0,1.1893463E-1,1.92276E-1,0E0,2.2665405E-1,0E0,0E0,0E0,0E0,0E0,0E0,0E0,0E0,0E0,0E0,0E0,0E0,0E0,0E0,0E0,0E0,0E0,0E0,0E0,0E0,0E0,0E0,0E0,0E0],"parents":[2147483647,0,0,1,1,2,2,3,3,4,4,5,5,6,6,7,7,8,8,9,9,10,10,11,11,12,12,13,13,14,14,18,18,20,20,21,21,22,22,23,23,24,24,25,25,26,26,27,27,28,28,29,29,30,30,39,39,40,40,41,41,42,42,43,43,44,44,45,45,46,46,50,50,55,55,56,56,57,57,58,58,59,59,60,60,61,61,62,62,67,67,68,68,70,70],"right_children":[2,4,6,8,10,12,14,16,18,20,22,24,26,28,30,-1,-1,-1,32,-1,34,36,38,40,42,44,46,48,50,52,54,-1,-1,-1,-1,-1,-1,-1,-1,56,58,60,62,64,66,68,70,-1,-1,-1,72,-1,-1,-1,-1,74,76,78,80,82,84,86,88,-1,-1,-1,-1,90,92,-1,94,-1,-1,-1,-1,-1,-1,-1,-1,-1,-1,-1,-1,-1,-1,-1,-1,-1,-1,-1,-1,-1,-1,-1,-1],"split_conditions":[6.6668945E1,6.5905E1,6.7865E1,6.546E1,6.6245E1,6.7306915E1,6.8415E1,6.5135E1,6.566216E1,6.605E1,6.6495E1,6.707E1,6.7510895E1,6.811E1,6.8705E1,-3.189642E-2,-2.818305E-2,-2.3953855E-2,6.5765E1,-1.8123098E-2,6.614979E1,6.6395E1,6.655662E1,6.691E1,6.7195E1,6.7405E1,6.763141E1,6.795E1,6.8265E1,6.855E1,6.882E1,-2.1987958E-2,-2.0342182E-2,-1.6364677E-2,-1.4800026E-2,-1.2675966E-2,-1.1372073E-2,-1.0196303E-2,-8.926019E-3,6.6805E1,6.701E1,6.7125626E1,6.725124E1,6.735279E1,6.746E1,6.757E1,6.771E1,1.0369306E-2,1.2060921E-2,1.4361472E-2,6.8325E1,1.8987585E-2,2.0666527E-2,2.2768583E-2,2.5058528E-2,6.675E1,6.6856445E1,6.6945E1,6.703E1,6.71E1,6.7165E1,6.7215E1,6.729E1,1.7380673E-3,2.490331E-3,3.2687937E-3,4.0281783E-3,6.7539505E1,6.7595E1,6.599927E-3,4.0524295E-3,1.6052295E-2,1.7144084E-2,-7.4477307E-3,-6.349306E-3,-5.5752457E-3,-4.8457203E-3,-4.100361E-3,-3.517344E-3,-2.9262733E-3,-2.3949826E-3,-1.9188462E-3,-1.474704E-3,-9.629805E-4,-4.621461E-4,-4.5404173E-5,3.8633327E-4,7.8973843E-4,1.2332726E-3,4.629647E-3,5.0548273E-3,5.4565584E-3,5.919465E-3,7.3945513E-3,9.248165E-3],"split_indices":[18,2,2,1,2,18,2,9,18,2,16,3,18,3,1,0,0,0,2,0,18,1,18,3,3,3,18,2,1,3,3,0,0,0,0,0,0,0,0,3,1,18,18,18,3,3,16,0,0,0,2,0,0,0,0,3,18,2,3,3,3,2,1,0,0,0,0,18,3,0,12,0,0,0,0,0,0,0,0,0,0,0,0,0,0,0,0,0,0,0,0,0,0,0,0],"split_type":[0,0,0,0,0,0,0,0,0,0,0,0,0,0,0,0,0,0,0,0,0,0,0,0,0,0,0,0,0,0,0,0,0,0,0,0,0,0,0,0,0,0,0,0,0,0,0,0,0,0,0,0,0,0,0,0,0,0,0,0,0,0,0,0,0,0,0,0,0,0,0,0,0,0,0,0,0,0,0,0,0,0,0,0,0,0,0,0,0,0,0,0,0,0,0],"sum_hessian":[3.0084E4,6.082E3,2.4002E4,3.991E3,2.091E3,1.8529E4,5.473E3,1.051E3,2.94E3,1.055E3,1.036E3,8.836E3,9.693E3,2.64E3,2.833E3,5.99E2,4.52E2,1.418E3,1.522E3,5.62E2,4.93E2,4.4E2,5.96E2,3.584E3,5.252E3,4.42E3,5.273E3,7.28E2,1.912E3,1.765E3,1.068E3,1.034E3,4.88E2,2.51E2,2.42E2,2.1E2,2.3E2,2.44E2,3.52E2,1.372E3,2.212E3,1.83E3,3.422E3,1.802E3,2.618E3,3.628E3,1.645E3,4.89E2,2.39E2,6.15E2,1.297E3,6.58E2,1.107E3,4.57E2,6.11E2,4.46E2,9.26E2,1.282E3,9.3E2,8.82E2,9.48E2,1.688E3,1.734E3,1.055E3,7.47E2,1.264E3,1.354E3,1.571E3,2.057E3,1.299E3,3.46E2,6.7E2,6.27E2,2.11E2,2.35E2,4.72E2,4.54E2,5.71E2,7.11E2,2.79E2,6.51E2,4.93E2,3.89E2,4.62E2,4.86E2,6.98E2,9.9E2,9.15E2,8.19E2,8.21E2,7.5E2,9.41E2,1.116E3,5.9E1,2.87E2],"tree_param":{"num_deleted":"0","num_feature":"25","num_nodes":"95","size_leaf_vector":"1"}},{"base_weights":[1.636716E-3,-1.0124588E0,2.6552987E-1,-1.2031559E0,-6.517728E-1,8.05795E-2,8.9074445E-1,-1.4833908E0,-1.1054457E0,-8.247178E-1,-5.067277E-1,-8.050871E-2,2.2458082E-1,7.120548E-1,1.0556266E0,-3.1305633E-2,-2.7687132E-2,-1.1642686E0,-1.0348756E0,-1.7318167E-2,-1.4948475E-2,-5.8959144E-1,-4.5108047E-1,-1.9726701E-1,4.7663893E-3,1.5170208E-1,2.911261E-1,5.358684E-1,7.7917844E-1,9.80266E-1,1.1793219E0,-2.3977624E-2,-2.2640571E-2,-2.1269545E-2,-1.9478714E-2,-1.2405793E-2,-1.1073611E-2,-9.747028E-3,-8.234296E-3,-2.7060536E-1,-1.5192474E-1,-5.309931E-2,3.1136096E-2,1.0419909E-1,1.8366964E-1,2.7796045E-1,4.1633314E-1,1.01739615E-2,1.17687285E-2,1.4074925E-2,8.1333035E-1,1.8648444E-2,2.025938E-2,2.234657E-2,2.4583394E-2,-6.362506E-3,-2.4861224E-1,-1.8227991E-1,-1.21139996E-1,-1.5450843E-3,-6.130248E-4,9.77416E-3,4.9567733E-2,1.7658278E-3,2.5420608E-3,3.2917713E-3,4.0562223E-3,2.5102642E-1,3.0556703E-1,7.3321876E-3,9.197819E-3,1.5747184E-2,1.6809223E-2,-5.3155185E-3,-4.5900587E-3,-3.9168564E-3,-3.4157485E-3,-2.7587612E-3,-2.2048813E-3,-3.9325612E-5,3.8242663E-4,7.815202E-4,1.2306084E-3,4.7168178E-3,5.2826726E-3,5.7996404E-3,6.4025265E-3],"categories":[],"categories_nodes":[],"categories_segments":[],"categories_sizes":[],"default_left":[0,0,0,0,0,0,0,0,0,0,0,0,0,0,0,0,0,0,0,0,0,0,0,0,0,0,0,0,0,0,0,0,0,0,0,0,0,0,0,0,0,0,0,0,0,0,0,0,0,0,0,0,0,0,0,0,0,0,0,0,0,0,0,0,0,0,0,0,0,0,0,0,0,0,0,0,0,0,0,0,0,0,0,0,0,0,0],"id":16,"left_children":[1,3,5,7,9,11,13,15,17,19,21,23,25,27,29,-1,-1,31,33,-1,-1,35,37,39,41,43,45,47,49,51,53,-1,-1,-1,-1,-1,-1,-1,-1,55,57,59,61,63,65,67,69,-1,-1,-1,71,-1,-1,-1,-1,-1,73,75,77,-1,-1,79,81,-1,-1,-1,-1,83,85,-1,-1,-1,-1,-1,-1,-1,-1,-1,-1,-1,-1,-1,-1,-1,-1,-1,-1],"loss_changes":[8.0559517E3,4.2676367E2,2.7620703E3,1.0966699E2,5.3564636E1,4.276532E2,1.5990869E2,6.3325195E0,1.1323486E1,2.4729004E0,5.142914E0,8.664307E1,4.7163147E1,3.056726E1,2.5261719E1,0E0,0E0,4.7070312E-1,1.3712158E0,0E0,0E0,1.724701E-1,8.073883E-1,1.2172821E1,7.676937E0,7.0391006E0,8.269867E0,7.375946E-1,4.3094482E0,1.8200684E0,1.927002E0,0E0,0E0,0E0,0E0,0E0,0E0,0E0,0E0,1.3861542E0,2.1010475E0,8.5164595E-1,1.3602653E0,6.708412E-1,9.8088837E-1,3.348114E0,8.753433E-1,0E0,0E0,0E0,2.5286865E-1,0E0,0E0,0E0,0E0,0E0,2.548523E-1,1.4455795E-1,1.9180107E-1,0E0,0E0,1.7584097E-1,2.3041534E-1,0E0,0E0,0E0,0E0,4.028778E-1,4.222412E-1,0E0,0E0,0E0,0E0,0E0,0E0,0E0,0E0,0E0,0E0,0E0,0E0,0E0,0E0,0E0,0E0,0E0,0E0],"parents":[2147483647,0,0,1,1,2,2,3,3,4,4,5,5,6,6,7,7,8,8,9,9,10,10,11,11,12,12,13,13,14,14,17,17,18,18,21,21,22,22,23,23,24,24,25,25,26,26,27,27,28,28,29,29,30,30,39,39,40,40,41,41,42,42,43,43,44,44,45,45,46,46,50,50,56,56,57,57,58,58,61,61,62,62,67,67,68,68],"right_children":[2,4,6,8,10,12,14,16,18,20,22,24,26,28,30,-1,-1,32,34,-1,-1,36,38,40,42,44,46,48,50,52,54,-1,-1,-1,-1,-1,-1,-1,-1,56,58,60,62,64,66,68,70,-1,-1,-1,72,-1,-1,-1,-1,-1,74,76,78,-1,-1,80,82,-1,-1,-1,-1,84,86,-1,-1,-1,-1,-1,-1,-1,-1,-1,-1,-1,-1,-1,-1,-1,-1,-1,-1],"split_conditions":[6.6705E1,6.5935E1,6.7865E1,6.5445E1,6.626E1,6.7305E1,6.8425E1,6.5135E1,6.5685E1,6.611E1,6.6505E1,6.707E1,6.752E1,6.811E1,6.869E1,-3.1305633E-2,-2.7687132E-2,6.562E1,6.5805E1,-1.7318167E-2,-1.4948475E-2,6.638735E1,6.6575E1,6.692E1,6.7195E1,6.741E1,6.768E1,6.795E1,6.8255E1,6.8551384E1,6.8805E1,-2.3977624E-2,-2.2640571E-2,-2.1269545E-2,-1.9478714E-2,-1.2405793E-2,-1.1073611E-2,-9.747028E-3,-8.234296E-3,6.682E1,6.7E1,6.713E1,6.7245E1,6.737E1,6.7464676E1,6.7595E1,6.785E1,1.01739615E-2,1.17687285E-2,1.4074925E-2,6.8325E1,1.8648444E-2,2.025938E-2,2.234657E-2,2.4583394E-2,-6.362506E-3,6.687E1,6.697E1,6.704E1,-1.5450843E-3,-6.130248E-4,6.7221085E1,6.72811E1,1.7658278E-3,2.5420608E-3,3.2917713E-3,4.0562223E-3,6.755596E1,6.763141E1,7.3321876E-3,9.197819E-3,1.5747184E-2,1.6809223E-2,-5.3155185E-3,-4.5900587E-3,-3.9168564E-3,-3.4157485E-3,-2.7587612E-3,-2.2048813E-3,-3.9325612E-5,3.8242663E-4,7.815202E-4,